digraph Tree {
node [shape=box] ;
0 [label="Rooms <= 3.5\nmse = 455762632164.557\nsamples = 6196\nvalue = 1068828.202"] ;
1 [label="Rooms <= 2.5\nmse = 231091546371.61\nsamples = 4600\nvalue = 892052.488"] ;
0 -> 1 [labeldistance=2.5, labelangle=45, headlabel="True"] ;
2 [label="Landsize <= 80.5\nmse = 96508098732.512\nsamples = 2059\nvalue = 675606.991"] ;
1 -> 2 ;
3 [label="Rooms <= 1.5\nmse = 39755215618.225\nsamples = 898\nvalue = 539603.746"] ;
2 -> 3 ;
4 [label="Lattitude <= -37.772\nmse = 14703836162.19\nsamples = 242\nvalue = 393070.455"] ;
3 -> 4 ;
5 [label="Longtitude <= 144.893\nmse = 15006877715.025\nsamples = 209\nvalue = 406493.062"] ;
4 -> 5 ;
6 [label="Lattitude <= -37.811\nmse = 3600410000.0\nsamples = 10\nvalue = 280300.0"] ;
5 -> 6 ;
7 [label="Longtitude <= 144.889\nmse = 216666666.667\nsamples = 3\nvalue = 330000.0"] ;
6 -> 7 ;
8 [label="Lattitude <= -37.826\nmse = 25000000.0\nsamples = 2\nvalue = 340000.0"] ;
7 -> 8 ;
9 [label="mse = 0.0\nsamples = 1\nvalue = 335000.0"] ;
8 -> 9 ;
10 [label="mse = 0.0\nsamples = 1\nvalue = 345000.0"] ;
8 -> 10 ;
11 [label="mse = 0.0\nsamples = 1\nvalue = 310000.0"] ;
7 -> 11 ;
12 [label="Lattitude <= -37.805\nmse = 3538285714.286\nsamples = 7\nvalue = 259000.0"] ;
6 -> 12 ;
13 [label="Longtitude <= 144.879\nmse = 25000000.0\nsamples = 2\nvalue = 205000.0"] ;
12 -> 13 ;
14 [label="mse = 0.0\nsamples = 1\nvalue = 210000.0"] ;
13 -> 14 ;
15 [label="mse = 0.0\nsamples = 1\nvalue = 200000.0"] ;
13 -> 15 ;
16 [label="Longtitude <= 144.891\nmse = 3310640000.0\nsamples = 5\nvalue = 280600.0"] ;
12 -> 16 ;
17 [label="Lattitude <= -37.796\nmse = 1616666666.667\nsamples = 3\nvalue = 320000.0"] ;
16 -> 17 ;
18 [label="mse = 0.0\nsamples = 1\nvalue = 375000.0"] ;
17 -> 18 ;
19 [label="Lattitude <= -37.791\nmse = 156250000.0\nsamples = 2\nvalue = 292500.0"] ;
17 -> 19 ;
20 [label="mse = 0.0\nsamples = 1\nvalue = 280000.0"] ;
19 -> 20 ;
21 [label="mse = 0.0\nsamples = 1\nvalue = 305000.0"] ;
19 -> 21 ;
22 [label="mse = 30250000.0\nsamples = 2\nvalue = 221500.0"] ;
16 -> 22 ;
23 [label="Longtitude <= 145.042\nmse = 14739618576.425\nsamples = 199\nvalue = 412834.422"] ;
5 -> 23 ;
24 [label="Lattitude <= -37.802\nmse = 15363640752.941\nsamples = 170\nvalue = 424940.0"] ;
23 -> 24 ;
25 [label="Longtitude <= 144.983\nmse = 17894897901.537\nsamples = 134\nvalue = 435602.985"] ;
24 -> 25 ;
26 [label="Longtitude <= 144.983\nmse = 33412877453.512\nsamples = 44\nvalue = 483693.182"] ;
25 -> 26 ;
27 [label="Lattitude <= -37.852\nmse = 21636676041.103\nsamples = 43\nvalue = 466802.326"] ;
26 -> 27 ;
28 [label="Longtitude <= 144.979\nmse = 1992843112.245\nsamples = 14\nvalue = 406178.571"] ;
27 -> 28 ;
29 [label="Lattitude <= -37.861\nmse = 245000000.0\nsamples = 6\nvalue = 382000.0"] ;
28 -> 29 ;
30 [label="Longtitude <= 144.974\nmse = 238888888.889\nsamples = 3\nvalue = 371666.667"] ;
29 -> 30 ;
31 [label="mse = 0.0\nsamples = 1\nvalue = 350000.0"] ;
30 -> 31 ;
32 [label="Lattitude <= -37.864\nmse = 6250000.0\nsamples = 2\nvalue = 382500.0"] ;
30 -> 32 ;
33 [label="mse = 0.0\nsamples = 1\nvalue = 380000.0"] ;
32 -> 33 ;
34 [label="mse = 0.0\nsamples = 1\nvalue = 385000.0"] ;
32 -> 34 ;
35 [label="Lattitude <= -37.86\nmse = 37555555.556\nsamples = 3\nvalue = 392333.333"] ;
29 -> 35 ;
36 [label="mse = 0.0\nsamples = 1\nvalue = 400000.0"] ;
35 -> 36 ;
37 [label="Longtitude <= 144.938\nmse = 12250000.0\nsamples = 2\nvalue = 388500.0"] ;
35 -> 37 ;
38 [label="mse = 0.0\nsamples = 1\nvalue = 385000.0"] ;
37 -> 38 ;
39 [label="mse = 0.0\nsamples = 1\nvalue = 392000.0"] ;
37 -> 39 ;
40 [label="Lattitude <= -37.872\nmse = 2536433593.75\nsamples = 8\nvalue = 424312.5"] ;
28 -> 40 ;
41 [label="Longtitude <= 144.98\nmse = 1831360000.0\nsamples = 5\nvalue = 398300.0"] ;
40 -> 41 ;
42 [label="Lattitude <= -37.874\nmse = 1820222222.222\nsamples = 3\nvalue = 420333.333"] ;
41 -> 42 ;
43 [label="mse = 0.0\nsamples = 1\nvalue = 360000.0"] ;
42 -> 43 ;
44 [label="mse = 250000.0\nsamples = 2\nvalue = 450500.0"] ;
42 -> 44 ;
45 [label="Longtitude <= 144.98\nmse = 27562500.0\nsamples = 2\nvalue = 365250.0"] ;
41 -> 45 ;
46 [label="mse = 0.0\nsamples = 1\nvalue = 360000.0"] ;
45 -> 46 ;
47 [label="mse = 0.0\nsamples = 1\nvalue = 370500.0"] ;
45 -> 47 ;
48 [label="Longtitude <= 144.982\nmse = 704222222.222\nsamples = 3\nvalue = 467666.667"] ;
40 -> 48 ;
49 [label="Lattitude <= -37.869\nmse = 256000000.0\nsamples = 2\nvalue = 484000.0"] ;
48 -> 49 ;
50 [label="mse = 0.0\nsamples = 1\nvalue = 468000.0"] ;
49 -> 50 ;
51 [label="mse = 0.0\nsamples = 1\nvalue = 500000.0"] ;
49 -> 51 ;
52 [label="mse = 0.0\nsamples = 1\nvalue = 435000.0"] ;
48 -> 52 ;
53 [label="Lattitude <= -37.846\nmse = 28489115933.413\nsamples = 29\nvalue = 496068.966"] ;
27 -> 53 ;
54 [label="mse = 0.0\nsamples = 1\nvalue = 1100000.0"] ;
53 -> 54 ;
55 [label="Longtitude <= 144.972\nmse = 16015196428.571\nsamples = 28\nvalue = 474500.0"] ;
53 -> 55 ;
56 [label="Longtitude <= 144.955\nmse = 6527208333.333\nsamples = 24\nvalue = 439250.0"] ;
55 -> 56 ;
57 [label="Longtitude <= 144.953\nmse = 7434434948.98\nsamples = 14\nvalue = 465107.143"] ;
56 -> 57 ;
58 [label="Lattitude <= -37.806\nmse = 4180840236.686\nsamples = 13\nvalue = 448576.923"] ;
57 -> 58 ;
59 [label="Lattitude <= -37.809\nmse = 3039566115.702\nsamples = 11\nvalue = 461045.455"] ;
58 -> 59 ;
60 [label="Lattitude <= -37.814\nmse = 2950089843.75\nsamples = 8\nvalue = 447437.5"] ;
59 -> 60 ;
61 [label="Longtitude <= 144.941\nmse = 1158030612.245\nsamples = 7\nvalue = 464071.429"] ;
60 -> 61 ;
62 [label="Lattitude <= -37.841\nmse = 478000000.0\nsamples = 4\nvalue = 484000.0"] ;
61 -> 62 ;
63 [label="mse = 0.0\nsamples = 1\nvalue = 500000.0"] ;
62 -> 63 ;
64 [label="Longtitude <= 144.916\nmse = 523555555.556\nsamples = 3\nvalue = 478666.667"] ;
62 -> 64 ;
65 [label="mse = 400000000.0\nsamples = 2\nvalue = 490000.0"] ;
64 -> 65 ;
66 [label="mse = 0.0\nsamples = 1\nvalue = 456000.0"] ;
64 -> 66 ;
67 [label="Longtitude <= 144.943\nmse = 829166666.667\nsamples = 3\nvalue = 437500.0"] ;
61 -> 67 ;
68 [label="mse = 0.0\nsamples = 1\nvalue = 400000.0"] ;
67 -> 68 ;
69 [label="Lattitude <= -37.843\nmse = 189062500.0\nsamples = 2\nvalue = 456250.0"] ;
67 -> 69 ;
70 [label="mse = 0.0\nsamples = 1\nvalue = 470000.0"] ;
69 -> 70 ;
71 [label="mse = 0.0\nsamples = 1\nvalue = 442500.0"] ;
69 -> 71 ;
72 [label="mse = 0.0\nsamples = 1\nvalue = 331000.0"] ;
60 -> 72 ;
73 [label="mse = 1467555555.556\nsamples = 3\nvalue = 497333.333"] ;
59 -> 73 ;
74 [label="Lattitude <= -37.803\nmse = 4900000000.0\nsamples = 2\nvalue = 380000.0"] ;
58 -> 74 ;
75 [label="mse = 0.0\nsamples = 1\nvalue = 310000.0"] ;
74 -> 75 ;
76 [label="mse = 0.0\nsamples = 1\nvalue = 450000.0"] ;
74 -> 76 ;
77 [label="mse = 0.0\nsamples = 1\nvalue = 680000.0"] ;
57 -> 77 ;
78 [label="Longtitude <= 144.957\nmse = 3010622500.0\nsamples = 10\nvalue = 403050.0"] ;
56 -> 78 ;
79 [label="mse = 0.0\nsamples = 1\nvalue = 275000.0"] ;
78 -> 79 ;
80 [label="Lattitude <= -37.815\nmse = 1320839506.173\nsamples = 9\nvalue = 417277.778"] ;
78 -> 80 ;
81 [label="Longtitude <= 144.961\nmse = 315868055.556\nsamples = 6\nvalue = 434083.333"] ;
80 -> 81 ;
82 [label="Longtitude <= 144.959\nmse = 25000000.0\nsamples = 2\nvalue = 455000.0"] ;
81 -> 82 ;
83 [label="mse = 0.0\nsamples = 1\nvalue = 460000.0"] ;
82 -> 83 ;
84 [label="mse = 0.0\nsamples = 1\nvalue = 450000.0"] ;
82 -> 84 ;
85 [label="Lattitude <= -37.821\nmse = 133171875.0\nsamples = 4\nvalue = 423625.0"] ;
81 -> 85 ;
86 [label="Lattitude <= -37.831\nmse = 58388888.889\nsamples = 3\nvalue = 418166.667"] ;
85 -> 86 ;
87 [label="mse = 0.0\nsamples = 1\nvalue = 407500.0"] ;
86 -> 87 ;
88 [label="Landsize <= 31.5\nmse = 2250000.0\nsamples = 2\nvalue = 423500.0"] ;
86 -> 88 ;
89 [label="mse = 0.0\nsamples = 1\nvalue = 425000.0"] ;
88 -> 89 ;
90 [label="mse = 0.0\nsamples = 1\nvalue = 422000.0"] ;
88 -> 90 ;
91 [label="mse = 0.0\nsamples = 1\nvalue = 440000.0"] ;
85 -> 91 ;
92 [label="Longtitude <= 144.96\nmse = 1636222222.222\nsamples = 3\nvalue = 383666.667"] ;
80 -> 92 ;
93 [label="mse = 0.0\nsamples = 1\nvalue = 333000.0"] ;
92 -> 93 ;
94 [label="Lattitude <= -37.812\nmse = 529000000.0\nsamples = 2\nvalue = 409000.0"] ;
92 -> 94 ;
95 [label="mse = 0.0\nsamples = 1\nvalue = 386000.0"] ;
94 -> 95 ;
96 [label="mse = 0.0\nsamples = 1\nvalue = 432000.0"] ;
94 -> 96 ;
97 [label="Longtitude <= 144.979\nmse = 20755500000.0\nsamples = 4\nvalue = 686000.0"] ;
55 -> 97 ;
98 [label="Lattitude <= -37.814\nmse = 10600222222.222\nsamples = 3\nvalue = 751333.333"] ;
97 -> 98 ;
99 [label="mse = 420250000.0\nsamples = 2\nvalue = 679500.0"] ;
98 -> 99 ;
100 [label="mse = 0.0\nsamples = 1\nvalue = 895000.0"] ;
98 -> 100 ;
101 [label="mse = 0.0\nsamples = 1\nvalue = 490000.0"] ;
97 -> 101 ;
102 [label="mse = 0.0\nsamples = 1\nvalue = 1210000.0"] ;
26 -> 102 ;
103 [label="Landsize <= 65.0\nmse = 8624936939.506\nsamples = 90\nvalue = 412092.222"] ;
25 -> 103 ;
104 [label="Lattitude <= -37.839\nmse = 7960201176.619\nsamples = 89\nvalue = 409183.146"] ;
103 -> 104 ;
105 [label="Longtitude <= 145.012\nmse = 5523458433.16\nsamples = 48\nvalue = 388777.083"] ;
104 -> 105 ;
106 [label="Lattitude <= -37.849\nmse = 5766762143.327\nsamples = 39\nvalue = 400712.821"] ;
105 -> 106 ;
107 [label="Longtitude <= 144.987\nmse = 6382995802.469\nsamples = 27\nvalue = 420122.222"] ;
106 -> 107 ;
108 [label="Longtitude <= 144.985\nmse = 650000000.0\nsamples = 4\nvalue = 340000.0"] ;
107 -> 108 ;
109 [label="Longtitude <= 144.984\nmse = 625000000.0\nsamples = 2\nvalue = 325000.0"] ;
108 -> 109 ;
110 [label="mse = 0.0\nsamples = 1\nvalue = 350000.0"] ;
109 -> 110 ;
111 [label="mse = 0.0\nsamples = 1\nvalue = 300000.0"] ;
109 -> 111 ;
112 [label="Lattitude <= -37.878\nmse = 225000000.0\nsamples = 2\nvalue = 355000.0"] ;
108 -> 112 ;
113 [label="mse = 0.0\nsamples = 1\nvalue = 340000.0"] ;
112 -> 113 ;
114 [label="mse = 0.0\nsamples = 1\nvalue = 370000.0"] ;
112 -> 114 ;
115 [label="Lattitude <= -37.895\nmse = 6069426805.293\nsamples = 23\nvalue = 434056.522"] ;
107 -> 115 ;
116 [label="Lattitude <= -37.911\nmse = 1806250000.0\nsamples = 2\nvalue = 332500.0"] ;
115 -> 116 ;
117 [label="mse = 0.0\nsamples = 1\nvalue = 375000.0"] ;
116 -> 117 ;
118 [label="mse = 0.0\nsamples = 1\nvalue = 290000.0"] ;
116 -> 118 ;
119 [label="Longtitude <= 144.988\nmse = 5399635374.15\nsamples = 21\nvalue = 443728.571"] ;
115 -> 119 ;
120 [label="Lattitude <= -37.866\nmse = 542687500.0\nsamples = 4\nvalue = 494750.0"] ;
119 -> 120 ;
121 [label="Lattitude <= -37.881\nmse = 155555555.556\nsamples = 3\nvalue = 506666.667"] ;
120 -> 121 ;
122 [label="Lattitude <= -37.885\nmse = 100000000.0\nsamples = 2\nvalue = 500000.0"] ;
121 -> 122 ;
123 [label="mse = 0.0\nsamples = 1\nvalue = 510000.0"] ;
122 -> 123 ;
124 [label="mse = 0.0\nsamples = 1\nvalue = 490000.0"] ;
122 -> 124 ;
125 [label="mse = 0.0\nsamples = 1\nvalue = 520000.0"] ;
121 -> 125 ;
126 [label="mse = 0.0\nsamples = 1\nvalue = 459000.0"] ;
120 -> 126 ;
127 [label="Longtitude <= 144.991\nmse = 5785811211.073\nsamples = 17\nvalue = 431723.529"] ;
119 -> 127 ;
128 [label="Lattitude <= -37.873\nmse = 528666666.667\nsamples = 3\nvalue = 368000.0"] ;
127 -> 128 ;
129 [label="Lattitude <= -37.881\nmse = 25000000.0\nsamples = 2\nvalue = 352000.0"] ;
128 -> 129 ;
130 [label="mse = 0.0\nsamples = 1\nvalue = 347000.0"] ;
129 -> 130 ;
131 [label="mse = 0.0\nsamples = 1\nvalue = 357000.0"] ;
129 -> 131 ;
132 [label="mse = 0.0\nsamples = 1\nvalue = 400000.0"] ;
128 -> 132 ;
133 [label="Longtitude <= 145.001\nmse = 5855734540.816\nsamples = 14\nvalue = 445378.571"] ;
127 -> 133 ;
134 [label="Longtitude <= 144.996\nmse = 1766804897.959\nsamples = 7\nvalue = 473971.429"] ;
133 -> 134 ;
135 [label="Longtitude <= 144.994\nmse = 1548570000.0\nsamples = 4\nvalue = 488700.0"] ;
134 -> 135 ;
136 [label="Lattitude <= -37.857\nmse = 405555555.556\nsamples = 3\nvalue = 468333.333"] ;
135 -> 136 ;
137 [label="Lattitude <= -37.873\nmse = 6250000.0\nsamples = 2\nvalue = 482500.0"] ;
136 -> 137 ;
138 [label="mse = 0.0\nsamples = 1\nvalue = 485000.0"] ;
137 -> 138 ;
139 [label="mse = 0.0\nsamples = 1\nvalue = 480000.0"] ;
137 -> 139 ;
140 [label="mse = 0.0\nsamples = 1\nvalue = 440000.0"] ;
136 -> 140 ;
141 [label="mse = 0.0\nsamples = 1\nvalue = 549800.0"] ;
135 -> 141 ;
142 [label="Lattitude <= -37.857\nmse = 1382888888.889\nsamples = 3\nvalue = 454333.333"] ;
134 -> 142 ;
143 [label="mse = 0.0\nsamples = 1\nvalue = 501000.0"] ;
142 -> 143 ;
144 [label="Longtitude <= 144.999\nmse = 441000000.0\nsamples = 2\nvalue = 431000.0"] ;
142 -> 144 ;
145 [label="mse = 0.0\nsamples = 1\nvalue = 410000.0"] ;
144 -> 145 ;
146 [label="mse = 0.0\nsamples = 1\nvalue = 452000.0"] ;
144 -> 146 ;
147 [label="Longtitude <= 145.002\nmse = 8309561224.49\nsamples = 7\nvalue = 416785.714"] ;
133 -> 147 ;
148 [label="mse = 0.0\nsamples = 1\nvalue = 275000.0"] ;
147 -> 148 ;
149 [label="Lattitude <= -37.858\nmse = 5785534722.222\nsamples = 6\nvalue = 440416.667"] ;
147 -> 149 ;
150 [label="mse = 0.0\nsamples = 1\nvalue = 330000.0"] ;
149 -> 150 ;
151 [label="Lattitude <= -37.854\nmse = 4016600000.0\nsamples = 5\nvalue = 462500.0"] ;
149 -> 151 ;
152 [label="Lattitude <= -37.856\nmse = 1105562500.0\nsamples = 2\nvalue = 533750.0"] ;
151 -> 152 ;
153 [label="mse = 0.0\nsamples = 1\nvalue = 500500.0"] ;
152 -> 153 ;
154 [label="mse = 0.0\nsamples = 1\nvalue = 567000.0"] ;
152 -> 154 ;
155 [label="Lattitude <= -37.852\nmse = 316666666.667\nsamples = 3\nvalue = 415000.0"] ;
151 -> 155 ;
156 [label="mse = 306250000.0\nsamples = 2\nvalue = 422500.0"] ;
155 -> 156 ;
157 [label="mse = 0.0\nsamples = 1\nvalue = 400000.0"] ;
155 -> 157 ;
158 [label="Lattitude <= -37.842\nmse = 1625435763.889\nsamples = 12\nvalue = 357041.667"] ;
106 -> 158 ;
159 [label="Longtitude <= 144.999\nmse = 1899000000.0\nsamples = 8\nvalue = 346000.0"] ;
158 -> 159 ;
160 [label="Lattitude <= -37.843\nmse = 542000000.0\nsamples = 4\nvalue = 318000.0"] ;
159 -> 160 ;
161 [label="Lattitude <= -37.846\nmse = 80888888.889\nsamples = 3\nvalue = 330666.667"] ;
160 -> 161 ;
162 [label="mse = 0.0\nsamples = 1\nvalue = 342000.0"] ;
161 -> 162 ;
163 [label="mse = 25000000.0\nsamples = 2\nvalue = 325000.0"] ;
161 -> 163 ;
164 [label="mse = 0.0\nsamples = 1\nvalue = 280000.0"] ;
160 -> 164 ;
165 [label="Longtitude <= 145.002\nmse = 1688000000.0\nsamples = 4\nvalue = 374000.0"] ;
159 -> 165 ;
166 [label="mse = 0.0\nsamples = 2\nvalue = 410000.0"] ;
165 -> 166 ;
167 [label="Longtitude <= 145.006\nmse = 784000000.0\nsamples = 2\nvalue = 338000.0"] ;
165 -> 167 ;
168 [label="mse = 0.0\nsamples = 1\nvalue = 310000.0"] ;
167 -> 168 ;
169 [label="mse = 0.0\nsamples = 1\nvalue = 366000.0"] ;
167 -> 169 ;
170 [label="Longtitude <= 144.997\nmse = 346796875.0\nsamples = 4\nvalue = 379125.0"] ;
158 -> 170 ;
171 [label="Lattitude <= -37.841\nmse = 210250000.0\nsamples = 2\nvalue = 394500.0"] ;
170 -> 171 ;
172 [label="mse = 0.0\nsamples = 1\nvalue = 380000.0"] ;
171 -> 172 ;
173 [label="mse = 0.0\nsamples = 1\nvalue = 409000.0"] ;
171 -> 173 ;
174 [label="Lattitude <= -37.84\nmse = 10562500.0\nsamples = 2\nvalue = 363750.0"] ;
170 -> 174 ;
175 [label="mse = 0.0\nsamples = 1\nvalue = 367000.0"] ;
174 -> 175 ;
176 [label="mse = 0.0\nsamples = 1\nvalue = 360500.0"] ;
174 -> 176 ;
177 [label="Longtitude <= 145.021\nmse = 1176691358.025\nsamples = 9\nvalue = 337055.556"] ;
105 -> 177 ;
178 [label="Lattitude <= -37.879\nmse = 5062500.0\nsamples = 2\nvalue = 277750.0"] ;
177 -> 178 ;
179 [label="mse = 0.0\nsamples = 1\nvalue = 275500.0"] ;
178 -> 179 ;
180 [label="mse = 0.0\nsamples = 1\nvalue = 280000.0"] ;
178 -> 180 ;
181 [label="Longtitude <= 145.042\nmse = 219428571.429\nsamples = 7\nvalue = 354000.0"] ;
177 -> 181 ;
182 [label="Longtitude <= 145.03\nmse = 114250000.0\nsamples = 6\nvalue = 358500.0"] ;
181 -> 182 ;
183 [label="Lattitude <= -37.892\nmse = 25000000.0\nsamples = 2\nvalue = 345000.0"] ;
182 -> 183 ;
184 [label="mse = 0.0\nsamples = 1\nvalue = 340000.0"] ;
183 -> 184 ;
185 [label="mse = 0.0\nsamples = 1\nvalue = 350000.0"] ;
183 -> 185 ;
186 [label="Longtitude <= 145.042\nmse = 22187500.0\nsamples = 4\nvalue = 365250.0"] ;
182 -> 186 ;
187 [label="Lattitude <= -37.874\nmse = 2888888.889\nsamples = 3\nvalue = 362666.667"] ;
186 -> 187 ;
188 [label="Longtitude <= 145.037\nmse = 250000.0\nsamples = 2\nvalue = 361500.0"] ;
187 -> 188 ;
189 [label="mse = 0.0\nsamples = 1\nvalue = 361000.0"] ;
188 -> 189 ;
190 [label="mse = 0.0\nsamples = 1\nvalue = 362000.0"] ;
188 -> 190 ;
191 [label="mse = 0.0\nsamples = 1\nvalue = 365000.0"] ;
187 -> 191 ;
192 [label="mse = 0.0\nsamples = 1\nvalue = 373000.0"] ;
186 -> 192 ;
193 [label="mse = 0.0\nsamples = 1\nvalue = 327000.0"] ;
181 -> 193 ;
194 [label="Lattitude <= -37.837\nmse = 9754738548.483\nsamples = 41\nvalue = 433073.171"] ;
104 -> 194 ;
195 [label="Lattitude <= -37.837\nmse = 220222222.222\nsamples = 3\nvalue = 535333.333"] ;
194 -> 195 ;
196 [label="mse = 0.0\nsamples = 1\nvalue = 515000.0"] ;
195 -> 196 ;
197 [label="Lattitude <= -37.837\nmse = 20250000.0\nsamples = 2\nvalue = 545500.0"] ;
195 -> 197 ;
198 [label="mse = 0.0\nsamples = 1\nvalue = 550000.0"] ;
197 -> 198 ;
199 [label="mse = 0.0\nsamples = 1\nvalue = 541000.0"] ;
197 -> 199 ;
200 [label="Longtitude <= 144.991\nmse = 9616723684.211\nsamples = 38\nvalue = 425000.0"] ;
194 -> 200 ;
201 [label="Lattitude <= -37.817\nmse = 22692652343.75\nsamples = 8\nvalue = 486937.5"] ;
200 -> 201 ;
202 [label="Longtitude <= 144.991\nmse = 14636193877.551\nsamples = 7\nvalue = 449357.143"] ;
201 -> 202 ;
203 [label="Lattitude <= -37.836\nmse = 6641979166.667\nsamples = 6\nvalue = 410750.0"] ;
202 -> 203 ;
204 [label="mse = 0.0\nsamples = 1\nvalue = 567500.0"] ;
203 -> 204 ;
205 [label="Longtitude <= 144.988\nmse = 2073440000.0\nsamples = 5\nvalue = 379400.0"] ;
203 -> 205 ;
206 [label="mse = 0.0\nsamples = 1\nvalue = 310000.0"] ;
205 -> 206 ;
207 [label="Lattitude <= -37.826\nmse = 1086687500.0\nsamples = 4\nvalue = 396750.0"] ;
205 -> 207 ;
208 [label="Longtitude <= 144.988\nmse = 116666666.667\nsamples = 3\nvalue = 415000.0"] ;
207 -> 208 ;
209 [label="mse = 0.0\nsamples = 1\nvalue = 400000.0"] ;
208 -> 209 ;
210 [label="Longtitude <= 144.989\nmse = 6250000.0\nsamples = 2\nvalue = 422500.0"] ;
208 -> 210 ;
211 [label="mse = 0.0\nsamples = 1\nvalue = 420000.0"] ;
210 -> 211 ;
212 [label="mse = 0.0\nsamples = 1\nvalue = 425000.0"] ;
210 -> 212 ;
213 [label="mse = 0.0\nsamples = 1\nvalue = 342000.0"] ;
207 -> 213 ;
214 [label="mse = 0.0\nsamples = 1\nvalue = 681000.0"] ;
202 -> 214 ;
215 [label="mse = 0.0\nsamples = 1\nvalue = 750000.0"] ;
201 -> 215 ;
216 [label="Longtitude <= 145.026\nmse = 4834008055.556\nsamples = 30\nvalue = 408483.333"] ;
200 -> 216 ;
217 [label="Lattitude <= -37.807\nmse = 3110679783.951\nsamples = 18\nvalue = 385027.778"] ;
216 -> 217 ;
218 [label="Lattitude <= -37.813\nmse = 2843955017.301\nsamples = 17\nvalue = 380029.412"] ;
217 -> 218 ;
219 [label="Lattitude <= -37.823\nmse = 3066751479.29\nsamples = 13\nvalue = 389807.692"] ;
218 -> 219 ;
220 [label="Longtitude <= 145.002\nmse = 1616765306.122\nsamples = 7\nvalue = 365357.143"] ;
219 -> 220 ;
221 [label="Longtitude <= 144.995\nmse = 272222222.222\nsamples = 3\nvalue = 403333.333"] ;
220 -> 221 ;
222 [label="mse = 0.0\nsamples = 1\nvalue = 425000.0"] ;
221 -> 222 ;
223 [label="Lattitude <= -37.835\nmse = 56250000.0\nsamples = 2\nvalue = 392500.0"] ;
221 -> 223 ;
224 [label="mse = 0.0\nsamples = 1\nvalue = 400000.0"] ;
223 -> 224 ;
225 [label="mse = 0.0\nsamples = 1\nvalue = 385000.0"] ;
223 -> 225 ;
226 [label="Longtitude <= 145.025\nmse = 732296875.0\nsamples = 4\nvalue = 336875.0"] ;
220 -> 226 ;
227 [label="Lattitude <= -37.831\nmse = 330388888.889\nsamples = 3\nvalue = 324166.667"] ;
226 -> 227 ;
228 [label="mse = 0.0\nsamples = 1\nvalue = 349000.0"] ;
227 -> 228 ;
229 [label="Lattitude <= -37.825\nmse = 33062500.0\nsamples = 2\nvalue = 311750.0"] ;
227 -> 229 ;
230 [label="mse = 0.0\nsamples = 1\nvalue = 317500.0"] ;
229 -> 230 ;
231 [label="mse = 0.0\nsamples = 1\nvalue = 306000.0"] ;
229 -> 231 ;
232 [label="mse = 0.0\nsamples = 1\nvalue = 375000.0"] ;
226 -> 232 ;
233 [label="Longtitude <= 145.007\nmse = 3247222222.222\nsamples = 6\nvalue = 418333.333"] ;
219 -> 233 ;
234 [label="mse = 0.0\nsamples = 1\nvalue = 500000.0"] ;
233 -> 234 ;
235 [label="Longtitude <= 145.017\nmse = 2296000000.0\nsamples = 5\nvalue = 402000.0"] ;
233 -> 235 ;
236 [label="Longtitude <= 145.009\nmse = 968750000.0\nsamples = 4\nvalue = 382500.0"] ;
235 -> 236 ;
237 [label="mse = 0.0\nsamples = 1\nvalue = 330000.0"] ;
236 -> 237 ;
238 [label="Longtitude <= 145.01\nmse = 66666666.667\nsamples = 3\nvalue = 400000.0"] ;
236 -> 238 ;
239 [label="mse = 0.0\nsamples = 1\nvalue = 390000.0"] ;
238 -> 239 ;
240 [label="Longtitude <= 145.013\nmse = 25000000.0\nsamples = 2\nvalue = 405000.0"] ;
238 -> 240 ;
241 [label="mse = 0.0\nsamples = 1\nvalue = 410000.0"] ;
240 -> 241 ;
242 [label="mse = 0.0\nsamples = 1\nvalue = 400000.0"] ;
240 -> 242 ;
243 [label="mse = 0.0\nsamples = 1\nvalue = 480000.0"] ;
235 -> 243 ;
244 [label="Lattitude <= -37.811\nmse = 799187500.0\nsamples = 4\nvalue = 348250.0"] ;
218 -> 244 ;
245 [label="Longtitude <= 145.001\nmse = 814888888.889\nsamples = 3\nvalue = 340333.333"] ;
244 -> 245 ;
246 [label="mse = 0.0\nsamples = 1\nvalue = 314000.0"] ;
245 -> 246 ;
247 [label="mse = 702250000.0\nsamples = 2\nvalue = 353500.0"] ;
245 -> 247 ;
248 [label="mse = 0.0\nsamples = 1\nvalue = 372000.0"] ;
244 -> 248 ;
249 [label="mse = 0.0\nsamples = 1\nvalue = 470000.0"] ;
217 -> 249 ;
250 [label="Lattitude <= -37.828\nmse = 5355888888.889\nsamples = 12\nvalue = 443666.667"] ;
216 -> 250 ;
251 [label="Longtitude <= 145.04\nmse = 7096888888.889\nsamples = 3\nvalue = 377333.333"] ;
250 -> 251 ;
252 [label="Lattitude <= -37.83\nmse = 784000000.0\nsamples = 2\nvalue = 320000.0"] ;
251 -> 252 ;
253 [label="mse = 0.0\nsamples = 1\nvalue = 348000.0"] ;
252 -> 253 ;
254 [label="mse = 0.0\nsamples = 1\nvalue = 292000.0"] ;
252 -> 254 ;
255 [label="mse = 0.0\nsamples = 1\nvalue = 492000.0"] ;
251 -> 255 ;
256 [label="Lattitude <= -37.827\nmse = 2819950617.284\nsamples = 9\nvalue = 465777.778"] ;
250 -> 256 ;
257 [label="Longtitude <= 145.033\nmse = 1296000000.0\nsamples = 2\nvalue = 524000.0"] ;
256 -> 257 ;
258 [label="mse = 0.0\nsamples = 1\nvalue = 560000.0"] ;
257 -> 258 ;
259 [label="mse = 0.0\nsamples = 1\nvalue = 488000.0"] ;
257 -> 259 ;
260 [label="Lattitude <= -37.817\nmse = 2010122448.98\nsamples = 7\nvalue = 449142.857"] ;
256 -> 260 ;
261 [label="Lattitude <= -37.821\nmse = 914000000.0\nsamples = 5\nvalue = 426000.0"] ;
260 -> 261 ;
262 [label="Lattitude <= -37.823\nmse = 972222222.222\nsamples = 3\nvalue = 411666.667"] ;
261 -> 262 ;
263 [label="Longtitude <= 145.034\nmse = 156250000.0\nsamples = 2\nvalue = 432500.0"] ;
262 -> 263 ;
264 [label="mse = 0.0\nsamples = 1\nvalue = 445000.0"] ;
263 -> 264 ;
265 [label="mse = 0.0\nsamples = 1\nvalue = 420000.0"] ;
263 -> 265 ;
266 [label="mse = 0.0\nsamples = 1\nvalue = 370000.0"] ;
262 -> 266 ;
267 [label="Longtitude <= 145.04\nmse = 56250000.0\nsamples = 2\nvalue = 447500.0"] ;
261 -> 267 ;
268 [label="mse = 0.0\nsamples = 1\nvalue = 440000.0"] ;
267 -> 268 ;
269 [label="mse = 0.0\nsamples = 1\nvalue = 455000.0"] ;
267 -> 269 ;
270 [label="Lattitude <= -37.81\nmse = 64000000.0\nsamples = 2\nvalue = 507000.0"] ;
260 -> 270 ;
271 [label="mse = 0.0\nsamples = 1\nvalue = 499000.0"] ;
270 -> 271 ;
272 [label="mse = 0.0\nsamples = 1\nvalue = 515000.0"] ;
270 -> 272 ;
273 [label="mse = 0.0\nsamples = 1\nvalue = 671000.0"] ;
103 -> 273 ;
274 [label="Longtitude <= 144.903\nmse = 3943229166.667\nsamples = 36\nvalue = 385250.0"] ;
24 -> 274 ;
275 [label="mse = 0.0\nsamples = 1\nvalue = 170000.0"] ;
274 -> 275 ;
276 [label="Longtitude <= 144.962\nmse = 2694282857.143\nsamples = 35\nvalue = 391400.0"] ;
274 -> 276 ;
277 [label="Longtitude <= 144.94\nmse = 1458836734.694\nsamples = 14\nvalue = 372142.857"] ;
276 -> 277 ;
278 [label="Longtitude <= 144.932\nmse = 820888888.889\nsamples = 9\nvalue = 391333.333"] ;
277 -> 278 ;
279 [label="Longtitude <= 144.929\nmse = 518484375.0\nsamples = 8\nvalue = 384625.0"] ;
278 -> 279 ;
280 [label="Lattitude <= -37.789\nmse = 336204081.633\nsamples = 7\nvalue = 390285.714"] ;
279 -> 280 ;
281 [label="Longtitude <= 144.926\nmse = 182240000.0\nsamples = 5\nvalue = 383400.0"] ;
280 -> 281 ;
282 [label="Longtitude <= 144.925\nmse = 141687500.0\nsamples = 4\nvalue = 379250.0"] ;
281 -> 282 ;
283 [label="Lattitude <= -37.79\nmse = 1000000.0\nsamples = 2\nvalue = 391000.0"] ;
282 -> 283 ;
284 [label="mse = 0.0\nsamples = 1\nvalue = 390000.0"] ;
283 -> 284 ;
285 [label="mse = 0.0\nsamples = 1\nvalue = 392000.0"] ;
283 -> 285 ;
286 [label="mse = 6250000.0\nsamples = 2\nvalue = 367500.0"] ;
282 -> 286 ;
287 [label="mse = 0.0\nsamples = 1\nvalue = 400000.0"] ;
281 -> 287 ;
288 [label="Lattitude <= -37.78\nmse = 306250000.0\nsamples = 2\nvalue = 407500.0"] ;
280 -> 288 ;
289 [label="mse = 0.0\nsamples = 1\nvalue = 425000.0"] ;
288 -> 289 ;
290 [label="mse = 0.0\nsamples = 1\nvalue = 390000.0"] ;
288 -> 290 ;
291 [label="mse = 0.0\nsamples = 1\nvalue = 345000.0"] ;
279 -> 291 ;
292 [label="mse = 0.0\nsamples = 1\nvalue = 445000.0"] ;
278 -> 292 ;
293 [label="Longtitude <= 144.952\nmse = 751040000.0\nsamples = 5\nvalue = 337600.0"] ;
277 -> 293 ;
294 [label="Longtitude <= 144.948\nmse = 155555555.556\nsamples = 3\nvalue = 316666.667"] ;
293 -> 294 ;
295 [label="mse = 0.0\nsamples = 1\nvalue = 300000.0"] ;
294 -> 295 ;
296 [label="Lattitude <= -37.785\nmse = 25000000.0\nsamples = 2\nvalue = 325000.0"] ;
294 -> 296 ;
297 [label="mse = 0.0\nsamples = 1\nvalue = 320000.0"] ;
296 -> 297 ;
298 [label="mse = 0.0\nsamples = 1\nvalue = 330000.0"] ;
296 -> 298 ;
299 [label="Longtitude <= 144.957\nmse = 1000000.0\nsamples = 2\nvalue = 369000.0"] ;
293 -> 299 ;
300 [label="mse = 0.0\nsamples = 1\nvalue = 368000.0"] ;
299 -> 300 ;
301 [label="mse = 0.0\nsamples = 1\nvalue = 370000.0"] ;
299 -> 301 ;
302 [label="Longtitude <= 144.972\nmse = 3105871882.086\nsamples = 21\nvalue = 404238.095"] ;
276 -> 302 ;
303 [label="Lattitude <= -37.778\nmse = 1886187500.0\nsamples = 4\nvalue = 468250.0"] ;
302 -> 303 ;
304 [label="Lattitude <= -37.79\nmse = 928222222.222\nsamples = 3\nvalue = 448333.333"] ;
303 -> 304 ;
305 [label="mse = 0.0\nsamples = 1\nvalue = 490000.0"] ;
304 -> 305 ;
306 [label="Longtitude <= 144.967\nmse = 90250000.0\nsamples = 2\nvalue = 427500.0"] ;
304 -> 306 ;
307 [label="mse = 0.0\nsamples = 1\nvalue = 418000.0"] ;
306 -> 307 ;
308 [label="mse = 0.0\nsamples = 1\nvalue = 437000.0"] ;
306 -> 308 ;
309 [label="mse = 0.0\nsamples = 1\nvalue = 528000.0"] ;
303 -> 309 ;
310 [label="Lattitude <= -37.779\nmse = 2201880622.837\nsamples = 17\nvalue = 389176.471"] ;
302 -> 310 ;
311 [label="Longtitude <= 145.022\nmse = 1870051020.408\nsamples = 14\nvalue = 396642.857"] ;
310 -> 311 ;
312 [label="Longtitude <= 144.979\nmse = 1645985207.101\nsamples = 13\nvalue = 401769.231"] ;
311 -> 312 ;
313 [label="Lattitude <= -37.786\nmse = 304055555.556\nsamples = 3\nvalue = 366333.333"] ;
312 -> 313 ;
314 [label="Lattitude <= -37.796\nmse = 18062500.0\nsamples = 2\nvalue = 354250.0"] ;
313 -> 314 ;
315 [label="mse = 0.0\nsamples = 1\nvalue = 350000.0"] ;
314 -> 315 ;
316 [label="mse = 0.0\nsamples = 1\nvalue = 358500.0"] ;
314 -> 316 ;
317 [label="mse = 0.0\nsamples = 1\nvalue = 390500.0"] ;
313 -> 317 ;
318 [label="Longtitude <= 144.988\nmse = 1558840000.0\nsamples = 10\nvalue = 412400.0"] ;
312 -> 318 ;
319 [label="Lattitude <= -37.797\nmse = 20250000.0\nsamples = 2\nvalue = 460500.0"] ;
318 -> 319 ;
320 [label="mse = 0.0\nsamples = 1\nvalue = 465000.0"] ;
319 -> 320 ;
321 [label="mse = 0.0\nsamples = 1\nvalue = 456000.0"] ;
319 -> 321 ;
322 [label="Longtitude <= 144.995\nmse = 1220484375.0\nsamples = 8\nvalue = 400375.0"] ;
318 -> 322 ;
323 [label="Lattitude <= -37.796\nmse = 222222.222\nsamples = 3\nvalue = 365333.333"] ;
322 -> 323 ;
324 [label="mse = 0.0\nsamples = 1\nvalue = 366000.0"] ;
323 -> 324 ;
325 [label="mse = 0.0\nsamples = 2\nvalue = 365000.0"] ;
323 -> 325 ;
326 [label="Lattitude <= -37.784\nmse = 773840000.0\nsamples = 5\nvalue = 421400.0"] ;
322 -> 326 ;
327 [label="Longtitude <= 145.002\nmse = 225000000.0\nsamples = 2\nvalue = 450000.0"] ;
326 -> 327 ;
328 [label="mse = 0.0\nsamples = 1\nvalue = 435000.0"] ;
327 -> 328 ;
329 [label="mse = 0.0\nsamples = 1\nvalue = 465000.0"] ;
327 -> 329 ;
330 [label="Lattitude <= -37.783\nmse = 230888888.889\nsamples = 3\nvalue = 402333.333"] ;
326 -> 330 ;
331 [label="mse = 0.0\nsamples = 1\nvalue = 400000.0"] ;
330 -> 331 ;
332 [label="mse = 342250000.0\nsamples = 2\nvalue = 403500.0"] ;
330 -> 332 ;
333 [label="mse = 0.0\nsamples = 1\nvalue = 330000.0"] ;
311 -> 333 ;
334 [label="Longtitude <= 145.019\nmse = 2276222222.222\nsamples = 3\nvalue = 354333.333"] ;
310 -> 334 ;
335 [label="Lattitude <= -37.778\nmse = 81000000.0\nsamples = 2\nvalue = 321000.0"] ;
334 -> 335 ;
336 [label="mse = 0.0\nsamples = 1\nvalue = 312000.0"] ;
335 -> 336 ;
337 [label="mse = 0.0\nsamples = 1\nvalue = 330000.0"] ;
335 -> 337 ;
338 [label="mse = 0.0\nsamples = 1\nvalue = 421000.0"] ;
334 -> 338 ;
339 [label="Landsize <= 61.5\nmse = 5186649227.111\nsamples = 29\nvalue = 341870.69"] ;
23 -> 339 ;
340 [label="Lattitude <= -37.845\nmse = 4049597393.69\nsamples = 27\nvalue = 331796.296"] ;
339 -> 340 ;
341 [label="Lattitude <= -37.89\nmse = 2596713326.446\nsamples = 22\nvalue = 315340.909"] ;
340 -> 341 ;
342 [label="Longtitude <= 145.06\nmse = 1980462500.0\nsamples = 10\nvalue = 295250.0"] ;
341 -> 342 ;
343 [label="Longtitude <= 145.045\nmse = 594666666.667\nsamples = 3\nvalue = 262000.0"] ;
342 -> 343 ;
344 [label="mse = 0.0\nsamples = 1\nvalue = 296000.0"] ;
343 -> 344 ;
345 [label="Lattitude <= -37.923\nmse = 25000000.0\nsamples = 2\nvalue = 245000.0"] ;
343 -> 345 ;
346 [label="mse = 0.0\nsamples = 1\nvalue = 240000.0"] ;
345 -> 346 ;
347 [label="mse = 0.0\nsamples = 1\nvalue = 250000.0"] ;
345 -> 347 ;
348 [label="Longtitude <= 145.062\nmse = 1897500000.0\nsamples = 7\nvalue = 309500.0"] ;
342 -> 348 ;
349 [label="Longtitude <= 145.062\nmse = 434666666.667\nsamples = 3\nvalue = 352000.0"] ;
348 -> 349 ;
350 [label="Longtitude <= 145.062\nmse = 64000000.0\nsamples = 2\nvalue = 338000.0"] ;
349 -> 350 ;
351 [label="mse = 0.0\nsamples = 1\nvalue = 330000.0"] ;
350 -> 351 ;
352 [label="mse = 0.0\nsamples = 1\nvalue = 346000.0"] ;
350 -> 352 ;
353 [label="mse = 0.0\nsamples = 1\nvalue = 380000.0"] ;
349 -> 353 ;
354 [label="Longtitude <= 145.073\nmse = 623921875.0\nsamples = 4\nvalue = 277625.0"] ;
348 -> 354 ;
355 [label="Lattitude <= -37.896\nmse = 10562500.0\nsamples = 2\nvalue = 253250.0"] ;
354 -> 355 ;
356 [label="mse = 0.0\nsamples = 1\nvalue = 250000.0"] ;
355 -> 356 ;
357 [label="mse = 0.0\nsamples = 1\nvalue = 256500.0"] ;
355 -> 357 ;
358 [label="Longtitude <= 145.084\nmse = 49000000.0\nsamples = 2\nvalue = 302000.0"] ;
354 -> 358 ;
359 [label="mse = 0.0\nsamples = 1\nvalue = 295000.0"] ;
358 -> 359 ;
360 [label="mse = 0.0\nsamples = 1\nvalue = 309000.0"] ;
358 -> 360 ;
361 [label="Lattitude <= -37.89\nmse = 2493576388.889\nsamples = 12\nvalue = 332083.333"] ;
341 -> 361 ;
362 [label="mse = 0.0\nsamples = 1\nvalue = 470000.0"] ;
361 -> 362 ;
363 [label="Lattitude <= -37.887\nmse = 833884297.521\nsamples = 11\nvalue = 319545.455"] ;
361 -> 363 ;
364 [label="Longtitude <= 145.052\nmse = 205555555.556\nsamples = 3\nvalue = 348333.333"] ;
363 -> 364 ;
365 [label="Lattitude <= -37.889\nmse = 56250000.0\nsamples = 2\nvalue = 357500.0"] ;
364 -> 365 ;
366 [label="mse = 0.0\nsamples = 1\nvalue = 350000.0"] ;
365 -> 366 ;
367 [label="mse = 0.0\nsamples = 1\nvalue = 365000.0"] ;
365 -> 367 ;
368 [label="mse = 0.0\nsamples = 1\nvalue = 330000.0"] ;
364 -> 368 ;
369 [label="Longtitude <= 145.048\nmse = 642187500.0\nsamples = 8\nvalue = 308750.0"] ;
363 -> 369 ;
370 [label="Longtitude <= 145.047\nmse = 422222222.222\nsamples = 3\nvalue = 323333.333"] ;
369 -> 370 ;
371 [label="Lattitude <= -37.867\nmse = 100000000.0\nsamples = 2\nvalue = 310000.0"] ;
370 -> 371 ;
372 [label="mse = 0.0\nsamples = 1\nvalue = 300000.0"] ;
371 -> 372 ;
373 [label="mse = 0.0\nsamples = 1\nvalue = 320000.0"] ;
371 -> 373 ;
374 [label="mse = 0.0\nsamples = 1\nvalue = 350000.0"] ;
370 -> 374 ;
375 [label="Longtitude <= 145.048\nmse = 570000000.0\nsamples = 5\nvalue = 300000.0"] ;
369 -> 375 ;
376 [label="mse = 0.0\nsamples = 1\nvalue = 260000.0"] ;
375 -> 376 ;
377 [label="Lattitude <= -37.878\nmse = 212500000.0\nsamples = 4\nvalue = 310000.0"] ;
375 -> 377 ;
378 [label="mse = 56250000.0\nsamples = 2\nvalue = 297500.0"] ;
377 -> 378 ;
379 [label="Lattitude <= -37.864\nmse = 56250000.0\nsamples = 2\nvalue = 322500.0"] ;
377 -> 379 ;
380 [label="mse = 0.0\nsamples = 1\nvalue = 315000.0"] ;
379 -> 380 ;
381 [label="mse = 0.0\nsamples = 1\nvalue = 330000.0"] ;
379 -> 381 ;
382 [label="Lattitude <= -37.824\nmse = 4008560000.0\nsamples = 5\nvalue = 404200.0"] ;
340 -> 382 ;
383 [label="Lattitude <= -37.83\nmse = 1024000000.0\nsamples = 2\nvalue = 473000.0"] ;
382 -> 383 ;
384 [label="mse = 0.0\nsamples = 1\nvalue = 441000.0"] ;
383 -> 384 ;
385 [label="mse = 0.0\nsamples = 1\nvalue = 505000.0"] ;
383 -> 385 ;
386 [label="Lattitude <= -37.809\nmse = 738888888.889\nsamples = 3\nvalue = 358333.333"] ;
382 -> 386 ;
387 [label="Longtitude <= 145.044\nmse = 100000000.0\nsamples = 2\nvalue = 340000.0"] ;
386 -> 387 ;
388 [label="mse = 0.0\nsamples = 1\nvalue = 330000.0"] ;
387 -> 388 ;
389 [label="mse = 0.0\nsamples = 1\nvalue = 350000.0"] ;
387 -> 389 ;
390 [label="mse = 0.0\nsamples = 1\nvalue = 395000.0"] ;
386 -> 390 ;
391 [label="Longtitude <= 145.068\nmse = 669515625.0\nsamples = 2\nvalue = 477875.0"] ;
339 -> 391 ;
392 [label="mse = 0.0\nsamples = 1\nvalue = 452000.0"] ;
391 -> 392 ;
393 [label="mse = 0.0\nsamples = 1\nvalue = 503750.0"] ;
391 -> 393 ;
394 [label="Lattitude <= -37.753\nmse = 4416844811.754\nsamples = 33\nvalue = 308060.606"] ;
4 -> 394 ;
395 [label="Longtitude <= 144.995\nmse = 4426231568.998\nsamples = 23\nvalue = 330086.957"] ;
394 -> 395 ;
396 [label="Longtitude <= 144.916\nmse = 2777312500.0\nsamples = 16\nvalue = 306750.0"] ;
395 -> 396 ;
397 [label="Landsize <= 31.0\nmse = 1143055555.556\nsamples = 6\nvalue = 364166.667"] ;
396 -> 397 ;
398 [label="Lattitude <= -37.755\nmse = 439160000.0\nsamples = 5\nvalue = 351700.0"] ;
397 -> 398 ;
399 [label="Longtitude <= 144.907\nmse = 244750000.0\nsamples = 4\nvalue = 359500.0"] ;
398 -> 399 ;
400 [label="mse = 0.0\nsamples = 1\nvalue = 380000.0"] ;
399 -> 400 ;
401 [label="Lattitude <= -37.768\nmse = 139555555.556\nsamples = 3\nvalue = 352666.667"] ;
399 -> 401 ;
402 [label="mse = 0.0\nsamples = 1\nvalue = 362000.0"] ;
401 -> 402 ;
403 [label="mse = 144000000.0\nsamples = 2\nvalue = 348000.0"] ;
401 -> 403 ;
404 [label="mse = 0.0\nsamples = 1\nvalue = 320500.0"] ;
398 -> 404 ;
405 [label="mse = 0.0\nsamples = 1\nvalue = 426500.0"] ;
397 -> 405 ;
406 [label="Lattitude <= -37.77\nmse = 593060000.0\nsamples = 10\nvalue = 272300.0"] ;
396 -> 406 ;
407 [label="mse = 0.0\nsamples = 1\nvalue = 222000.0"] ;
406 -> 407 ;
408 [label="Lattitude <= -37.764\nmse = 346598765.432\nsamples = 9\nvalue = 277888.889"] ;
406 -> 408 ;
409 [label="Longtitude <= 144.941\nmse = 306250000.0\nsamples = 2\nvalue = 302500.0"] ;
408 -> 409 ;
410 [label="mse = 0.0\nsamples = 1\nvalue = 285000.0"] ;
409 -> 410 ;
411 [label="mse = 0.0\nsamples = 1\nvalue = 320000.0"] ;
409 -> 411 ;
412 [label="Longtitude <= 144.934\nmse = 135622448.98\nsamples = 7\nvalue = 270857.143"] ;
408 -> 412 ;
413 [label="mse = 182250000.0\nsamples = 2\nvalue = 278500.0"] ;
412 -> 413 ;
414 [label="Longtitude <= 144.944\nmse = 84260000.0\nsamples = 5\nvalue = 267800.0"] ;
412 -> 414 ;
415 [label="mse = 0.0\nsamples = 1\nvalue = 252000.0"] ;
414 -> 415 ;
416 [label="Lattitude <= -37.759\nmse = 27312500.0\nsamples = 4\nvalue = 271750.0"] ;
414 -> 416 ;
417 [label="Longtitude <= 144.96\nmse = 12250000.0\nsamples = 2\nvalue = 276000.0"] ;
416 -> 417 ;
418 [label="mse = 0.0\nsamples = 1\nvalue = 279500.0"] ;
417 -> 418 ;
419 [label="mse = 0.0\nsamples = 1\nvalue = 272500.0"] ;
417 -> 419 ;
420 [label="Longtitude <= 144.97\nmse = 6250000.0\nsamples = 2\nvalue = 267500.0"] ;
416 -> 420 ;
421 [label="mse = 0.0\nsamples = 1\nvalue = 265000.0"] ;
420 -> 421 ;
422 [label="mse = 0.0\nsamples = 1\nvalue = 270000.0"] ;
420 -> 422 ;
423 [label="Longtitude <= 145.002\nmse = 4105030612.245\nsamples = 7\nvalue = 383428.571"] ;
395 -> 423 ;
424 [label="mse = 0.0\nsamples = 1\nvalue = 517500.0"] ;
423 -> 424 ;
425 [label="Longtitude <= 145.009\nmse = 1294034722.222\nsamples = 6\nvalue = 361083.333"] ;
423 -> 425 ;
426 [label="Longtitude <= 145.008\nmse = 256000000.0\nsamples = 2\nvalue = 399000.0"] ;
425 -> 426 ;
427 [label="mse = 0.0\nsamples = 1\nvalue = 383000.0"] ;
426 -> 427 ;
428 [label="mse = 0.0\nsamples = 1\nvalue = 415000.0"] ;
426 -> 428 ;
429 [label="Lattitude <= -37.754\nmse = 734796875.0\nsamples = 4\nvalue = 342125.0"] ;
425 -> 429 ;
430 [label="Lattitude <= -37.759\nmse = 316666666.667\nsamples = 3\nvalue = 355000.0"] ;
429 -> 430 ;
431 [label="mse = 0.0\nsamples = 1\nvalue = 370000.0"] ;
430 -> 431 ;
432 [label="mse = 306250000.0\nsamples = 2\nvalue = 347500.0"] ;
430 -> 432 ;
433 [label="mse = 0.0\nsamples = 1\nvalue = 303500.0"] ;
429 -> 433 ;
434 [label="Lattitude <= -37.713\nmse = 712890000.0\nsamples = 10\nvalue = 257400.0"] ;
394 -> 434 ;
435 [label="Longtitude <= 144.921\nmse = 405000000.0\nsamples = 8\nvalue = 267250.0"] ;
434 -> 435 ;
436 [label="Longtitude <= 144.916\nmse = 30250000.0\nsamples = 2\nvalue = 285500.0"] ;
435 -> 436 ;
437 [label="mse = 0.0\nsamples = 1\nvalue = 291000.0"] ;
436 -> 437 ;
438 [label="mse = 0.0\nsamples = 1\nvalue = 280000.0"] ;
436 -> 438 ;
439 [label="Longtitude <= 144.982\nmse = 381888888.889\nsamples = 6\nvalue = 261166.667"] ;
435 -> 439 ;
440 [label="Longtitude <= 144.952\nmse = 34312500.0\nsamples = 4\nvalue = 249250.0"] ;
439 -> 440 ;
441 [label="Landsize <= 24.5\nmse = 15500000.0\nsamples = 3\nvalue = 252000.0"] ;
440 -> 441 ;
442 [label="Longtitude <= 144.922\nmse = 14062500.0\nsamples = 2\nvalue = 253750.0"] ;
441 -> 442 ;
443 [label="mse = 0.0\nsamples = 1\nvalue = 250000.0"] ;
442 -> 443 ;
444 [label="mse = 0.0\nsamples = 1\nvalue = 257500.0"] ;
442 -> 444 ;
445 [label="mse = 0.0\nsamples = 1\nvalue = 248500.0"] ;
441 -> 445 ;
446 [label="mse = 0.0\nsamples = 1\nvalue = 241000.0"] ;
440 -> 446 ;
447 [label="Longtitude <= 145.002\nmse = 225000000.0\nsamples = 2\nvalue = 285000.0"] ;
439 -> 447 ;
448 [label="mse = 0.0\nsamples = 1\nvalue = 300000.0"] ;
447 -> 448 ;
449 [label="mse = 0.0\nsamples = 1\nvalue = 270000.0"] ;
447 -> 449 ;
450 [label="mse = 4000000.0\nsamples = 2\nvalue = 218000.0"] ;
434 -> 450 ;
451 [label="Bathroom <= 1.5\nmse = 38153551422.488\nsamples = 656\nvalue = 593660.235"] ;
3 -> 451 ;
452 [label="Longtitude <= 144.94\nmse = 27106606618.915\nsamples = 540\nvalue = 559904.841"] ;
451 -> 452 ;
453 [label="Lattitude <= -37.714\nmse = 8970223350.581\nsamples = 124\nvalue = 445306.0"] ;
452 -> 453 ;
454 [label="Longtitude <= 144.895\nmse = 8506976525.916\nsamples = 120\nvalue = 450149.533"] ;
453 -> 454 ;
455 [label="Lattitude <= -37.793\nmse = 3234500249.836\nsamples = 39\nvalue = 410335.897"] ;
454 -> 455 ;
456 [label="Lattitude <= -37.811\nmse = 2044955392.562\nsamples = 22\nvalue = 425822.727"] ;
455 -> 456 ;
457 [label="Longtitude <= 144.892\nmse = 1790121066.667\nsamples = 15\nvalue = 414140.0"] ;
456 -> 457 ;
458 [label="Longtitude <= 144.874\nmse = 2105558677.686\nsamples = 11\nvalue = 422463.636"] ;
457 -> 458 ;
459 [label="Landsize <= 38.5\nmse = 409969600.0\nsamples = 5\nvalue = 396820.0"] ;
458 -> 459 ;
460 [label="Longtitude <= 144.842\nmse = 89302500.0\nsamples = 2\nvalue = 381550.0"] ;
459 -> 460 ;
461 [label="mse = 0.0\nsamples = 1\nvalue = 391000.0"] ;
460 -> 461 ;
462 [label="mse = 0.0\nsamples = 1\nvalue = 372100.0"] ;
460 -> 462 ;
463 [label="Longtitude <= 144.871\nmse = 364666666.667\nsamples = 3\nvalue = 407000.0"] ;
459 -> 463 ;
464 [label="Landsize <= 77.5\nmse = 250000.0\nsamples = 2\nvalue = 420500.0"] ;
463 -> 464 ;
465 [label="mse = 0.0\nsamples = 1\nvalue = 421000.0"] ;
464 -> 465 ;
466 [label="mse = 0.0\nsamples = 1\nvalue = 420000.0"] ;
464 -> 466 ;
467 [label="mse = 0.0\nsamples = 1\nvalue = 380000.0"] ;
463 -> 467 ;
468 [label="Lattitude <= -37.849\nmse = 2513888888.889\nsamples = 6\nvalue = 443833.333"] ;
458 -> 468 ;
469 [label="Longtitude <= 144.889\nmse = 1876388888.889\nsamples = 3\nvalue = 404166.667"] ;
468 -> 469 ;
470 [label="Lattitude <= -37.857\nmse = 39062500.0\nsamples = 2\nvalue = 373750.0"] ;
469 -> 470 ;
471 [label="mse = 0.0\nsamples = 1\nvalue = 367500.0"] ;
470 -> 471 ;
472 [label="mse = 0.0\nsamples = 1\nvalue = 380000.0"] ;
470 -> 472 ;
473 [label="mse = 0.0\nsamples = 1\nvalue = 465000.0"] ;
469 -> 473 ;
474 [label="Lattitude <= -37.83\nmse = 4500000.0\nsamples = 3\nvalue = 483500.0"] ;
468 -> 474 ;
475 [label="mse = 0.0\nsamples = 2\nvalue = 485000.0"] ;
474 -> 475 ;
476 [label="mse = 0.0\nsamples = 1\nvalue = 480500.0"] ;
474 -> 476 ;
477 [label="Lattitude <= -37.854\nmse = 208187500.0\nsamples = 4\nvalue = 391250.0"] ;
457 -> 477 ;
478 [label="mse = 0.0\nsamples = 1\nvalue = 412000.0"] ;
477 -> 478 ;
479 [label="Longtitude <= 144.894\nmse = 86222222.222\nsamples = 3\nvalue = 384333.333"] ;
477 -> 479 ;
480 [label="mse = 0.0\nsamples = 1\nvalue = 375000.0"] ;
479 -> 480 ;
481 [label="mse = 64000000.0\nsamples = 2\nvalue = 389000.0"] ;
479 -> 481 ;
482 [label="Longtitude <= 144.89\nmse = 1671836734.694\nsamples = 7\nvalue = 450857.143"] ;
456 -> 482 ;
483 [label="Longtitude <= 144.886\nmse = 638472222.222\nsamples = 6\nvalue = 437166.667"] ;
482 -> 483 ;
484 [label="Landsize <= 40.0\nmse = 339440000.0\nsamples = 5\nvalue = 445600.0"] ;
483 -> 484 ;
485 [label="Lattitude <= -37.804\nmse = 131687500.0\nsamples = 4\nvalue = 453250.0"] ;
484 -> 485 ;
486 [label="mse = 0.0\nsamples = 1\nvalue = 470000.0"] ;
485 -> 486 ;
487 [label="Longtitude <= 144.876\nmse = 50888888.889\nsamples = 3\nvalue = 447666.667"] ;
485 -> 487 ;
488 [label="mse = 0.0\nsamples = 1\nvalue = 438000.0"] ;
487 -> 488 ;
489 [label="Lattitude <= -37.798\nmse = 6250000.0\nsamples = 2\nvalue = 452500.0"] ;
487 -> 489 ;
490 [label="mse = 0.0\nsamples = 1\nvalue = 455000.0"] ;
489 -> 490 ;
491 [label="mse = 0.0\nsamples = 1\nvalue = 450000.0"] ;
489 -> 491 ;
492 [label="mse = 0.0\nsamples = 1\nvalue = 415000.0"] ;
484 -> 492 ;
493 [label="mse = 0.0\nsamples = 1\nvalue = 395000.0"] ;
483 -> 493 ;
494 [label="mse = 0.0\nsamples = 1\nvalue = 533000.0"] ;
482 -> 494 ;
495 [label="Lattitude <= -37.776\nmse = 4061854671.28\nsamples = 17\nvalue = 390294.118"] ;
455 -> 495 ;
496 [label="Landsize <= 21.5\nmse = 2817918367.347\nsamples = 7\nvalue = 335714.286"] ;
495 -> 496 ;
497 [label="Lattitude <= -37.789\nmse = 520805555.556\nsamples = 6\nvalue = 315833.333"] ;
496 -> 497 ;
498 [label="Lattitude <= -37.79\nmse = 49000000.0\nsamples = 2\nvalue = 288000.0"] ;
497 -> 498 ;
499 [label="mse = 0.0\nsamples = 1\nvalue = 295000.0"] ;
498 -> 499 ;
500 [label="mse = 0.0\nsamples = 1\nvalue = 281000.0"] ;
498 -> 500 ;
501 [label="Lattitude <= -37.78\nmse = 175687500.0\nsamples = 4\nvalue = 329750.0"] ;
497 -> 501 ;
502 [label="Lattitude <= -37.784\nmse = 2250000.0\nsamples = 2\nvalue = 317500.0"] ;
501 -> 502 ;
503 [label="mse = 0.0\nsamples = 1\nvalue = 316000.0"] ;
502 -> 503 ;
504 [label="mse = 0.0\nsamples = 1\nvalue = 319000.0"] ;
502 -> 504 ;
505 [label="Lattitude <= -37.779\nmse = 49000000.0\nsamples = 2\nvalue = 342000.0"] ;
501 -> 505 ;
506 [label="mse = 0.0\nsamples = 1\nvalue = 349000.0"] ;
505 -> 506 ;
507 [label="mse = 0.0\nsamples = 1\nvalue = 335000.0"] ;
505 -> 507 ;
508 [label="mse = 0.0\nsamples = 1\nvalue = 455000.0"] ;
496 -> 508 ;
509 [label="Lattitude <= -37.754\nmse = 1387650000.0\nsamples = 10\nvalue = 428500.0"] ;
495 -> 509 ;
510 [label="Longtitude <= 144.881\nmse = 795187500.0\nsamples = 8\nvalue = 415750.0"] ;
509 -> 510 ;
511 [label="Longtitude <= 144.88\nmse = 353472222.222\nsamples = 6\nvalue = 425166.667"] ;
510 -> 511 ;
512 [label="Landsize <= 53.5\nmse = 222687500.0\nsamples = 4\nvalue = 415250.0"] ;
511 -> 512 ;
513 [label="Landsize <= 26.5\nmse = 250000.0\nsamples = 2\nvalue = 410500.0"] ;
512 -> 513 ;
514 [label="mse = 0.0\nsamples = 1\nvalue = 411000.0"] ;
513 -> 514 ;
515 [label="mse = 0.0\nsamples = 1\nvalue = 410000.0"] ;
513 -> 515 ;
516 [label="mse = 400000000.0\nsamples = 2\nvalue = 420000.0"] ;
512 -> 516 ;
517 [label="Lattitude <= -37.772\nmse = 25000000.0\nsamples = 2\nvalue = 445000.0"] ;
511 -> 517 ;
518 [label="mse = 0.0\nsamples = 1\nvalue = 450000.0"] ;
517 -> 518 ;
519 [label="mse = 0.0\nsamples = 1\nvalue = 440000.0"] ;
517 -> 519 ;
520 [label="Lattitude <= -37.77\nmse = 1056250000.0\nsamples = 2\nvalue = 387500.0"] ;
510 -> 520 ;
521 [label="mse = 0.0\nsamples = 1\nvalue = 355000.0"] ;
520 -> 521 ;
522 [label="mse = 0.0\nsamples = 1\nvalue = 420000.0"] ;
520 -> 522 ;
523 [label="Lattitude <= -37.741\nmse = 506250000.0\nsamples = 2\nvalue = 479500.0"] ;
509 -> 523 ;
524 [label="mse = 0.0\nsamples = 1\nvalue = 457000.0"] ;
523 -> 524 ;
525 [label="mse = 0.0\nsamples = 1\nvalue = 502000.0"] ;
523 -> 525 ;
526 [label="Lattitude <= -37.811\nmse = 9914896771.663\nsamples = 81\nvalue = 469319.062"] ;
454 -> 526 ;
527 [label="Longtitude <= 144.896\nmse = 4948940000.0\nsamples = 10\nvalue = 569600.0"] ;
526 -> 527 ;
528 [label="Landsize <= 40.0\nmse = 885062500.0\nsamples = 2\nvalue = 679750.0"] ;
527 -> 528 ;
529 [label="mse = 0.0\nsamples = 1\nvalue = 650000.0"] ;
528 -> 529 ;
530 [label="mse = 0.0\nsamples = 1\nvalue = 709500.0"] ;
528 -> 530 ;
531 [label="Longtitude <= 144.939\nmse = 2173339843.75\nsamples = 8\nvalue = 542062.5"] ;
527 -> 531 ;
532 [label="Lattitude <= -37.859\nmse = 401387755.102\nsamples = 7\nvalue = 525928.571"] ;
531 -> 532 ;
533 [label="Lattitude <= -37.865\nmse = 1562500.0\nsamples = 2\nvalue = 548750.0"] ;
532 -> 533 ;
534 [label="mse = 0.0\nsamples = 1\nvalue = 550000.0"] ;
533 -> 534 ;
535 [label="mse = 0.0\nsamples = 1\nvalue = 547500.0"] ;
533 -> 535 ;
536 [label="Lattitude <= -37.855\nmse = 269660000.0\nsamples = 5\nvalue = 516800.0"] ;
532 -> 536 ;
537 [label="mse = 0.0\nsamples = 1\nvalue = 491500.0"] ;
536 -> 537 ;
538 [label="Lattitude <= -37.847\nmse = 137046875.0\nsamples = 4\nvalue = 523125.0"] ;
536 -> 538 ;
539 [label="mse = 217562500.0\nsamples = 2\nvalue = 528250.0"] ;
538 -> 539 ;
540 [label="mse = 4000000.0\nsamples = 2\nvalue = 518000.0"] ;
538 -> 540 ;
541 [label="mse = 0.0\nsamples = 1\nvalue = 655000.0"] ;
531 -> 541 ;
542 [label="Lattitude <= -37.742\nmse = 8998462210.577\nsamples = 71\nvalue = 455194.986"] ;
526 -> 542 ;
543 [label="Lattitude <= -37.764\nmse = 8014510255.734\nsamples = 68\nvalue = 448791.824"] ;
542 -> 543 ;
544 [label="Longtitude <= 144.926\nmse = 6904923824.44\nsamples = 40\nvalue = 432058.6"] ;
543 -> 544 ;
545 [label="Landsize <= 23.5\nmse = 2634048075.347\nsamples = 28\nvalue = 412012.286"] ;
544 -> 545 ;
546 [label="Lattitude <= -37.808\nmse = 2291762311.023\nsamples = 27\nvalue = 415975.704"] ;
545 -> 546 ;
547 [label="Lattitude <= -37.81\nmse = 659051584.0\nsamples = 2\nvalue = 475672.0"] ;
546 -> 547 ;
548 [label="mse = 0.0\nsamples = 1\nvalue = 501344.0"] ;
547 -> 548 ;
549 [label="mse = 0.0\nsamples = 1\nvalue = 450000.0"] ;
547 -> 549 ;
550 [label="Longtitude <= 144.918\nmse = 2114480000.0\nsamples = 25\nvalue = 411200.0"] ;
546 -> 550 ;
551 [label="Lattitude <= -37.768\nmse = 1686444444.444\nsamples = 9\nvalue = 385333.333"] ;
550 -> 551 ;
552 [label="Longtitude <= 144.915\nmse = 1466687500.0\nsamples = 8\nvalue = 392250.0"] ;
551 -> 552 ;
553 [label="Lattitude <= -37.804\nmse = 1043551020.408\nsamples = 7\nvalue = 401142.857"] ;
552 -> 553 ;
554 [label="Lattitude <= -37.806\nmse = 56250000.0\nsamples = 2\nvalue = 362500.0"] ;
553 -> 554 ;
555 [label="mse = 0.0\nsamples = 1\nvalue = 355000.0"] ;
554 -> 555 ;
556 [label="mse = 0.0\nsamples = 1\nvalue = 370000.0"] ;
554 -> 556 ;
557 [label="Longtitude <= 144.901\nmse = 602240000.0\nsamples = 5\nvalue = 416600.0"] ;
553 -> 557 ;
558 [label="Longtitude <= 144.896\nmse = 992250000.0\nsamples = 2\nvalue = 401500.0"] ;
557 -> 558 ;
559 [label="mse = 0.0\nsamples = 1\nvalue = 433000.0"] ;
558 -> 559 ;
560 [label="mse = 0.0\nsamples = 1\nvalue = 370000.0"] ;
558 -> 560 ;
561 [label="Longtitude <= 144.911\nmse = 88888888.889\nsamples = 3\nvalue = 426666.667"] ;
557 -> 561 ;
562 [label="mse = 0.0\nsamples = 2\nvalue = 420000.0"] ;
561 -> 562 ;
563 [label="mse = 0.0\nsamples = 1\nvalue = 440000.0"] ;
561 -> 563 ;
564 [label="mse = 0.0\nsamples = 1\nvalue = 330000.0"] ;
552 -> 564 ;
565 [label="mse = 0.0\nsamples = 1\nvalue = 330000.0"] ;
551 -> 565 ;
566 [label="Longtitude <= 144.922\nmse = 1767187500.0\nsamples = 16\nvalue = 425750.0"] ;
550 -> 566 ;
567 [label="Longtitude <= 144.921\nmse = 157555555.556\nsamples = 3\nvalue = 459666.667"] ;
566 -> 567 ;
568 [label="Longtitude <= 144.92\nmse = 2250000.0\nsamples = 2\nvalue = 468500.0"] ;
567 -> 568 ;
569 [label="mse = 0.0\nsamples = 1\nvalue = 470000.0"] ;
568 -> 569 ;
570 [label="mse = 0.0\nsamples = 1\nvalue = 467000.0"] ;
568 -> 570 ;
571 [label="mse = 0.0\nsamples = 1\nvalue = 442000.0"] ;
567 -> 571 ;
572 [label="Longtitude <= 144.922\nmse = 1811917159.763\nsamples = 13\nvalue = 417923.077"] ;
566 -> 572 ;
573 [label="mse = 0.0\nsamples = 1\nvalue = 348000.0"] ;
572 -> 573 ;
574 [label="Longtitude <= 144.925\nmse = 1521520833.333\nsamples = 12\nvalue = 423750.0"] ;
572 -> 574 ;
575 [label="Lattitude <= -37.79\nmse = 1461333333.333\nsamples = 9\nvalue = 433333.333"] ;
574 -> 575 ;
576 [label="Lattitude <= -37.792\nmse = 137500000.0\nsamples = 4\nvalue = 415000.0"] ;
575 -> 576 ;
577 [label="Lattitude <= -37.795\nmse = 6250000.0\nsamples = 2\nvalue = 422500.0"] ;
576 -> 577 ;
578 [label="mse = 0.0\nsamples = 1\nvalue = 425000.0"] ;
577 -> 578 ;
579 [label="mse = 0.0\nsamples = 1\nvalue = 420000.0"] ;
577 -> 579 ;
580 [label="mse = 156250000.0\nsamples = 2\nvalue = 407500.0"] ;
576 -> 580 ;
581 [label="Lattitude <= -37.783\nmse = 2036400000.0\nsamples = 5\nvalue = 448000.0"] ;
575 -> 581 ;
582 [label="Longtitude <= 144.924\nmse = 1800000000.0\nsamples = 3\nvalue = 470000.0"] ;
581 -> 582 ;
583 [label="mse = 2025000000.0\nsamples = 2\nvalue = 455000.0"] ;
582 -> 583 ;
584 [label="mse = 0.0\nsamples = 1\nvalue = 500000.0"] ;
582 -> 584 ;
585 [label="Longtitude <= 144.924\nmse = 576000000.0\nsamples = 2\nvalue = 415000.0"] ;
581 -> 585 ;
586 [label="mse = 0.0\nsamples = 1\nvalue = 391000.0"] ;
585 -> 586 ;
587 [label="mse = 0.0\nsamples = 1\nvalue = 439000.0"] ;
585 -> 587 ;
588 [label="mse = 600000000.0\nsamples = 3\nvalue = 395000.0"] ;
574 -> 588 ;
589 [label="mse = 0.0\nsamples = 1\nvalue = 305000.0"] ;
545 -> 589 ;
590 [label="Lattitude <= -37.786\nmse = 13744763888.889\nsamples = 12\nvalue = 478833.333"] ;
544 -> 590 ;
591 [label="Lattitude <= -37.794\nmse = 10581479166.667\nsamples = 6\nvalue = 564750.0"] ;
590 -> 591 ;
592 [label="Lattitude <= -37.796\nmse = 264062500.0\nsamples = 2\nvalue = 476250.0"] ;
591 -> 592 ;
593 [label="mse = 0.0\nsamples = 1\nvalue = 492500.0"] ;
592 -> 593 ;
594 [label="mse = 0.0\nsamples = 1\nvalue = 460000.0"] ;
592 -> 594 ;
595 [label="Lattitude <= -37.792\nmse = 9866000000.0\nsamples = 4\nvalue = 609000.0"] ;
591 -> 595 ;
596 [label="mse = 0.0\nsamples = 1\nvalue = 773000.0"] ;
595 -> 596 ;
597 [label="Longtitude <= 144.931\nmse = 1200888888.889\nsamples = 3\nvalue = 554333.333"] ;
595 -> 597 ;
598 [label="mse = 0.0\nsamples = 1\nvalue = 603000.0"] ;
597 -> 598 ;
599 [label="Lattitude <= -37.791\nmse = 25000000.0\nsamples = 2\nvalue = 530000.0"] ;
597 -> 599 ;
600 [label="mse = 0.0\nsamples = 1\nvalue = 535000.0"] ;
599 -> 600 ;
601 [label="mse = 0.0\nsamples = 1\nvalue = 525000.0"] ;
599 -> 601 ;
602 [label="Longtitude <= 144.935\nmse = 2144701388.889\nsamples = 6\nvalue = 392916.667"] ;
590 -> 602 ;
603 [label="Lattitude <= -37.783\nmse = 147388888.889\nsamples = 3\nvalue = 434166.667"] ;
602 -> 603 ;
604 [label="mse = 0.0\nsamples = 1\nvalue = 420500.0"] ;
603 -> 604 ;
605 [label="Lattitude <= -37.778\nmse = 81000000.0\nsamples = 2\nvalue = 441000.0"] ;
603 -> 605 ;
606 [label="mse = 0.0\nsamples = 1\nvalue = 450000.0"] ;
605 -> 606 ;
607 [label="mse = 0.0\nsamples = 1\nvalue = 432000.0"] ;
605 -> 607 ;
608 [label="Longtitude <= 144.939\nmse = 738888888.889\nsamples = 3\nvalue = 351666.667"] ;
602 -> 608 ;
609 [label="mse = 506250000.0\nsamples = 2\nvalue = 337500.0"] ;
608 -> 609 ;
610 [label="mse = 0.0\nsamples = 1\nvalue = 380000.0"] ;
608 -> 610 ;
611 [label="Lattitude <= -37.748\nmse = 8628202487.245\nsamples = 28\nvalue = 472696.429"] ;
543 -> 611 ;
612 [label="Longtitude <= 144.91\nmse = 8653076962.81\nsamples = 22\nvalue = 493159.091"] ;
611 -> 612 ;
613 [label="Lattitude <= -37.758\nmse = 5943959183.673\nsamples = 7\nvalue = 552428.571"] ;
612 -> 613 ;
614 [label="mse = 0.0\nsamples = 1\nvalue = 670000.0"] ;
613 -> 614 ;
615 [label="Lattitude <= -37.754\nmse = 4246805555.556\nsamples = 6\nvalue = 532833.333"] ;
613 -> 615 ;
616 [label="Lattitude <= -37.755\nmse = 408666666.667\nsamples = 3\nvalue = 479000.0"] ;
615 -> 616 ;
617 [label="Lattitude <= -37.756\nmse = 342250000.0\nsamples = 2\nvalue = 488500.0"] ;
616 -> 617 ;
618 [label="mse = 0.0\nsamples = 1\nvalue = 470000.0"] ;
617 -> 618 ;
619 [label="mse = 0.0\nsamples = 1\nvalue = 507000.0"] ;
617 -> 619 ;
620 [label="mse = 0.0\nsamples = 1\nvalue = 460000.0"] ;
616 -> 620 ;
621 [label="Longtitude <= 144.907\nmse = 2288888888.889\nsamples = 3\nvalue = 586666.667"] ;
615 -> 621 ;
622 [label="Longtitude <= 144.901\nmse = 100000000.0\nsamples = 2\nvalue = 620000.0"] ;
621 -> 622 ;
623 [label="mse = 0.0\nsamples = 1\nvalue = 610000.0"] ;
622 -> 623 ;
624 [label="mse = 0.0\nsamples = 1\nvalue = 630000.0"] ;
622 -> 624 ;
625 [label="mse = 0.0\nsamples = 1\nvalue = 520000.0"] ;
621 -> 625 ;
626 [label="Lattitude <= -37.75\nmse = 7512966666.667\nsamples = 15\nvalue = 465500.0"] ;
612 -> 626 ;
627 [label="Lattitude <= -37.757\nmse = 5807668639.053\nsamples = 13\nvalue = 448846.154"] ;
626 -> 627 ;
628 [label="Longtitude <= 144.916\nmse = 6942222222.222\nsamples = 6\nvalue = 489333.333"] ;
627 -> 628 ;
629 [label="mse = 0.0\nsamples = 1\nvalue = 606000.0"] ;
628 -> 629 ;
630 [label="Longtitude <= 144.938\nmse = 5064000000.0\nsamples = 5\nvalue = 466000.0"] ;
628 -> 630 ;
631 [label="Longtitude <= 144.924\nmse = 4018750000.0\nsamples = 4\nvalue = 487500.0"] ;
630 -> 631 ;
632 [label="mse = 0.0\nsamples = 1\nvalue = 410000.0"] ;
631 -> 632 ;
633 [label="Longtitude <= 144.933\nmse = 2688888888.889\nsamples = 3\nvalue = 513333.333"] ;
631 -> 633 ;
634 [label="mse = 0.0\nsamples = 1\nvalue = 550000.0"] ;
633 -> 634 ;
635 [label="Longtitude <= 144.936\nmse = 3025000000.0\nsamples = 2\nvalue = 495000.0"] ;
633 -> 635 ;
636 [label="mse = 0.0\nsamples = 1\nvalue = 440000.0"] ;
635 -> 636 ;
637 [label="mse = 0.0\nsamples = 1\nvalue = 550000.0"] ;
635 -> 637 ;
638 [label="mse = 0.0\nsamples = 1\nvalue = 380000.0"] ;
630 -> 638 ;
639 [label="Lattitude <= -37.751\nmse = 2225836734.694\nsamples = 7\nvalue = 414142.857"] ;
627 -> 639 ;
640 [label="Longtitude <= 144.938\nmse = 1620555555.556\nsamples = 6\nvalue = 402333.333"] ;
639 -> 640 ;
641 [label="Lattitude <= -37.753\nmse = 344000000.0\nsamples = 5\nvalue = 386000.0"] ;
640 -> 641 ;
642 [label="Longtitude <= 144.917\nmse = 155555555.556\nsamples = 3\nvalue = 373333.333"] ;
641 -> 642 ;
643 [label="mse = 0.0\nsamples = 1\nvalue = 390000.0"] ;
642 -> 643 ;
644 [label="Longtitude <= 144.923\nmse = 25000000.0\nsamples = 2\nvalue = 365000.0"] ;
642 -> 644 ;
645 [label="mse = 0.0\nsamples = 1\nvalue = 360000.0"] ;
644 -> 645 ;
646 [label="mse = 0.0\nsamples = 1\nvalue = 370000.0"] ;
644 -> 646 ;
647 [label="Lattitude <= -37.752\nmse = 25000000.0\nsamples = 2\nvalue = 405000.0"] ;
641 -> 647 ;
648 [label="mse = 0.0\nsamples = 1\nvalue = 400000.0"] ;
647 -> 648 ;
649 [label="mse = 0.0\nsamples = 1\nvalue = 410000.0"] ;
647 -> 649 ;
650 [label="mse = 0.0\nsamples = 1\nvalue = 484000.0"] ;
640 -> 650 ;
651 [label="mse = 0.0\nsamples = 1\nvalue = 485000.0"] ;
639 -> 651 ;
652 [label="Lattitude <= -37.749\nmse = 5076562500.0\nsamples = 2\nvalue = 573750.0"] ;
626 -> 652 ;
653 [label="mse = 0.0\nsamples = 1\nvalue = 645000.0"] ;
652 -> 653 ;
654 [label="mse = 0.0\nsamples = 1\nvalue = 502500.0"] ;
652 -> 654 ;
655 [label="Longtitude <= 144.912\nmse = 1372222222.222\nsamples = 6\nvalue = 397666.667"] ;
611 -> 655 ;
656 [label="Longtitude <= 144.908\nmse = 989360000.0\nsamples = 5\nvalue = 387200.0"] ;
655 -> 656 ;
657 [label="Lattitude <= -37.745\nmse = 756250000.0\nsamples = 2\nvalue = 367500.0"] ;
656 -> 657 ;
658 [label="mse = 0.0\nsamples = 1\nvalue = 395000.0"] ;
657 -> 658 ;
659 [label="mse = 0.0\nsamples = 1\nvalue = 340000.0"] ;
657 -> 659 ;
660 [label="Longtitude <= 144.908\nmse = 713555555.556\nsamples = 3\nvalue = 400333.333"] ;
656 -> 660 ;
661 [label="mse = 0.0\nsamples = 1\nvalue = 435000.0"] ;
660 -> 661 ;
662 [label="Longtitude <= 144.908\nmse = 169000000.0\nsamples = 2\nvalue = 383000.0"] ;
660 -> 662 ;
663 [label="mse = 0.0\nsamples = 1\nvalue = 370000.0"] ;
662 -> 663 ;
664 [label="mse = 0.0\nsamples = 1\nvalue = 396000.0"] ;
662 -> 664 ;
665 [label="mse = 0.0\nsamples = 1\nvalue = 450000.0"] ;
655 -> 665 ;
666 [label="Longtitude <= 144.91\nmse = 9306888888.889\nsamples = 3\nvalue = 600333.333"] ;
542 -> 666 ;
667 [label="mse = 0.0\nsamples = 1\nvalue = 736000.0"] ;
666 -> 667 ;
668 [label="Longtitude <= 144.93\nmse = 156250000.0\nsamples = 2\nvalue = 532500.0"] ;
666 -> 668 ;
669 [label="mse = 0.0\nsamples = 1\nvalue = 545000.0"] ;
668 -> 669 ;
670 [label="mse = 0.0\nsamples = 1\nvalue = 520000.0"] ;
668 -> 670 ;
671 [label="Lattitude <= -37.709\nmse = 1050000000.0\nsamples = 4\nvalue = 300000.0"] ;
453 -> 671 ;
672 [label="mse = 0.0\nsamples = 1\nvalue = 250000.0"] ;
671 -> 672 ;
673 [label="Lattitude <= -37.703\nmse = 288888888.889\nsamples = 3\nvalue = 316666.667"] ;
671 -> 673 ;
674 [label="mse = 0.0\nsamples = 1\nvalue = 340000.0"] ;
673 -> 674 ;
675 [label="Lattitude <= -37.636\nmse = 25000000.0\nsamples = 2\nvalue = 305000.0"] ;
673 -> 675 ;
676 [label="mse = 0.0\nsamples = 1\nvalue = 300000.0"] ;
675 -> 676 ;
677 [label="mse = 0.0\nsamples = 1\nvalue = 310000.0"] ;
675 -> 677 ;
678 [label="Lattitude <= -37.776\nmse = 27431175499.767\nsamples = 416\nvalue = 594064.111"] ;
452 -> 678 ;
679 [label="Longtitude <= 145.02\nmse = 28412412604.229\nsamples = 354\nvalue = 609508.175"] ;
678 -> 679 ;
680 [label="Landsize <= 40.5\nmse = 32548736103.929\nsamples = 239\nvalue = 635110.393"] ;
679 -> 680 ;
681 [label="Lattitude <= -37.805\nmse = 30603544790.991\nsamples = 230\nvalue = 628406.017"] ;
680 -> 681 ;
682 [label="Lattitude <= -37.91\nmse = 23540565193.814\nsamples = 179\nvalue = 613628.492"] ;
681 -> 682 ;
683 [label="Lattitude <= -37.914\nmse = 24077060763.889\nsamples = 12\nvalue = 711541.667"] ;
682 -> 683 ;
684 [label="Longtitude <= 145.011\nmse = 11730662500.0\nsamples = 10\nvalue = 668250.0"] ;
683 -> 684 ;
685 [label="Longtitude <= 145.001\nmse = 3225868055.556\nsamples = 6\nvalue = 606916.667"] ;
684 -> 685 ;
686 [label="mse = 0.0\nsamples = 1\nvalue = 685000.0"] ;
685 -> 686 ;
687 [label="Lattitude <= -37.948\nmse = 2407760000.0\nsamples = 5\nvalue = 591300.0"] ;
685 -> 687 ;
688 [label="mse = 0.0\nsamples = 1\nvalue = 643500.0"] ;
687 -> 688 ;
689 [label="Lattitude <= -37.943\nmse = 2158187500.0\nsamples = 4\nvalue = 578250.0"] ;
687 -> 689 ;
690 [label="mse = 0.0\nsamples = 1\nvalue = 500000.0"] ;
689 -> 690 ;
691 [label="Lattitude <= -37.94\nmse = 156222222.222\nsamples = 3\nvalue = 604333.333"] ;
689 -> 691 ;
692 [label="mse = 0.0\nsamples = 1\nvalue = 587000.0"] ;
691 -> 692 ;
693 [label="Lattitude <= -37.926\nmse = 9000000.0\nsamples = 2\nvalue = 613000.0"] ;
691 -> 693 ;
694 [label="mse = 0.0\nsamples = 1\nvalue = 616000.0"] ;
693 -> 694 ;
695 [label="mse = 0.0\nsamples = 1\nvalue = 610000.0"] ;
693 -> 695 ;
696 [label="Lattitude <= -37.971\nmse = 10381187500.0\nsamples = 4\nvalue = 760250.0"] ;
684 -> 696 ;
697 [label="mse = 0.0\nsamples = 1\nvalue = 600000.0"] ;
696 -> 697 ;
698 [label="Lattitude <= -37.957\nmse = 2428222222.222\nsamples = 3\nvalue = 813666.667"] ;
696 -> 698 ;
699 [label="mse = 0.0\nsamples = 1\nvalue = 879000.0"] ;
698 -> 699 ;
700 [label="Longtitude <= 145.017\nmse = 441000000.0\nsamples = 2\nvalue = 781000.0"] ;
698 -> 700 ;
701 [label="mse = 0.0\nsamples = 1\nvalue = 802000.0"] ;
700 -> 701 ;
702 [label="mse = 0.0\nsamples = 1\nvalue = 760000.0"] ;
700 -> 702 ;
703 [label="Lattitude <= -37.912\nmse = 29584000000.0\nsamples = 2\nvalue = 928000.0"] ;
683 -> 703 ;
704 [label="mse = 0.0\nsamples = 1\nvalue = 1100000.0"] ;
703 -> 704 ;
705 [label="mse = 0.0\nsamples = 1\nvalue = 756000.0"] ;
703 -> 705 ;
706 [label="Longtitude <= 144.949\nmse = 22763628361.54\nsamples = 167\nvalue = 606592.814"] ;
682 -> 706 ;
707 [label="Longtitude <= 144.945\nmse = 24633950617.284\nsamples = 9\nvalue = 707777.778"] ;
706 -> 707 ;
708 [label="Longtitude <= 144.94\nmse = 10758984375.0\nsamples = 8\nvalue = 664375.0"] ;
707 -> 708 ;
709 [label="mse = 0.0\nsamples = 1\nvalue = 900000.0"] ;
708 -> 709 ;
710 [label="Longtitude <= 144.942\nmse = 3231632653.061\nsamples = 7\nvalue = 630714.286"] ;
708 -> 710 ;
711 [label="Lattitude <= -37.84\nmse = 625000000.0\nsamples = 2\nvalue = 575000.0"] ;
710 -> 711 ;
712 [label="mse = 0.0\nsamples = 1\nvalue = 550000.0"] ;
711 -> 712 ;
713 [label="mse = 0.0\nsamples = 1\nvalue = 600000.0"] ;
711 -> 713 ;
714 [label="Lattitude <= -37.843\nmse = 2536000000.0\nsamples = 5\nvalue = 653000.0"] ;
710 -> 714 ;
715 [label="mse = 0.0\nsamples = 1\nvalue = 600000.0"] ;
714 -> 715 ;
716 [label="Lattitude <= -37.825\nmse = 2292187500.0\nsamples = 4\nvalue = 666250.0"] ;
714 -> 716 ;
717 [label="mse = 3038888888.889\nsamples = 3\nvalue = 668333.333"] ;
716 -> 717 ;
718 [label="mse = 0.0\nsamples = 1\nvalue = 660000.0"] ;
716 -> 718 ;
719 [label="mse = 0.0\nsamples = 1\nvalue = 1055000.0"] ;
707 -> 719 ;
720 [label="Longtitude <= 144.982\nmse = 22040670956.177\nsamples = 158\nvalue = 600829.114"] ;
706 -> 720 ;
721 [label="Longtitude <= 144.969\nmse = 11309764791.819\nsamples = 37\nvalue = 554270.27"] ;
720 -> 721 ;
722 [label="Longtitude <= 144.962\nmse = 9444848072.562\nsamples = 21\nvalue = 581904.762"] ;
721 -> 722 ;
723 [label="Longtitude <= 144.955\nmse = 12407560000.0\nsamples = 10\nvalue = 547200.0"] ;
722 -> 723 ;
724 [label="Lattitude <= -37.815\nmse = 7464583333.333\nsamples = 6\nvalue = 612500.0"] ;
723 -> 724 ;
725 [label="Longtitude <= 144.954\nmse = 1406250000.0\nsamples = 2\nvalue = 507500.0"] ;
724 -> 725 ;
726 [label="mse = 0.0\nsamples = 1\nvalue = 470000.0"] ;
725 -> 726 ;
727 [label="mse = 0.0\nsamples = 1\nvalue = 545000.0"] ;
725 -> 727 ;
728 [label="Lattitude <= -37.812\nmse = 2225000000.0\nsamples = 4\nvalue = 665000.0"] ;
724 -> 728 ;
729 [label="mse = 0.0\nsamples = 1\nvalue = 740000.0"] ;
728 -> 729 ;
730 [label="Landsize <= 8.5\nmse = 466666666.667\nsamples = 3\nvalue = 640000.0"] ;
728 -> 730 ;
731 [label="Longtitude <= 144.953\nmse = 25000000.0\nsamples = 2\nvalue = 625000.0"] ;
730 -> 731 ;
732 [label="mse = 0.0\nsamples = 1\nvalue = 620000.0"] ;
731 -> 732 ;
733 [label="mse = 0.0\nsamples = 1\nvalue = 630000.0"] ;
731 -> 733 ;
734 [label="mse = 0.0\nsamples = 1\nvalue = 670000.0"] ;
730 -> 734 ;
735 [label="Lattitude <= -37.811\nmse = 3831687500.0\nsamples = 4\nvalue = 449250.0"] ;
723 -> 735 ;
736 [label="mse = 0.0\nsamples = 1\nvalue = 360000.0"] ;
735 -> 736 ;
737 [label="Longtitude <= 144.961\nmse = 1568666666.667\nsamples = 3\nvalue = 479000.0"] ;
735 -> 737 ;
738 [label="Longtitude <= 144.961\nmse = 1000000.0\nsamples = 2\nvalue = 451000.0"] ;
737 -> 738 ;
739 [label="mse = 0.0\nsamples = 1\nvalue = 452000.0"] ;
738 -> 739 ;
740 [label="mse = 0.0\nsamples = 1\nvalue = 450000.0"] ;
738 -> 740 ;
741 [label="mse = 0.0\nsamples = 1\nvalue = 535000.0"] ;
737 -> 741 ;
742 [label="Longtitude <= 144.963\nmse = 4661157024.793\nsamples = 11\nvalue = 613454.545"] ;
722 -> 742 ;
743 [label="mse = 0.0\nsamples = 1\nvalue = 720000.0"] ;
742 -> 743 ;
744 [label="Lattitude <= -37.846\nmse = 3878560000.0\nsamples = 10\nvalue = 602800.0"] ;
742 -> 744 ;
745 [label="mse = 0.0\nsamples = 1\nvalue = 700000.0"] ;
744 -> 745 ;
746 [label="Longtitude <= 144.964\nmse = 3143111111.111\nsamples = 9\nvalue = 592000.0"] ;
744 -> 746 ;
747 [label="mse = 0.0\nsamples = 1\nvalue = 530000.0"] ;
746 -> 747 ;
748 [label="Lattitude <= -37.828\nmse = 2995437500.0\nsamples = 8\nvalue = 599750.0"] ;
746 -> 748 ;
749 [label="Lattitude <= -37.833\nmse = 938888888.889\nsamples = 3\nvalue = 616666.667"] ;
748 -> 749 ;
750 [label="mse = 0.0\nsamples = 1\nvalue = 595000.0"] ;
749 -> 750 ;
751 [label="mse = 1056250000.0\nsamples = 2\nvalue = 627500.0"] ;
749 -> 751 ;
752 [label="Longtitude <= 144.966\nmse = 3954640000.0\nsamples = 5\nvalue = 589600.0"] ;
748 -> 752 ;
753 [label="mse = 6488666666.667\nsamples = 3\nvalue = 596000.0"] ;
752 -> 753 ;
754 [label="mse = 0.0\nsamples = 2\nvalue = 580000.0"] ;
752 -> 754 ;
755 [label="Lattitude <= -37.868\nmse = 11439625000.0\nsamples = 16\nvalue = 518000.0"] ;
721 -> 755 ;
756 [label="Longtitude <= 144.98\nmse = 10309600000.0\nsamples = 5\nvalue = 611000.0"] ;
755 -> 756 ;
757 [label="Longtitude <= 144.977\nmse = 4160888888.889\nsamples = 3\nvalue = 680666.667"] ;
756 -> 757 ;
758 [label="mse = 0.0\nsamples = 1\nvalue = 602000.0"] ;
757 -> 758 ;
759 [label="Lattitude <= -37.876\nmse = 1600000000.0\nsamples = 2\nvalue = 720000.0"] ;
757 -> 759 ;
760 [label="mse = 0.0\nsamples = 1\nvalue = 680000.0"] ;
759 -> 760 ;
761 [label="mse = 0.0\nsamples = 1\nvalue = 760000.0"] ;
759 -> 761 ;
762 [label="Lattitude <= -37.877\nmse = 1332250000.0\nsamples = 2\nvalue = 506500.0"] ;
756 -> 762 ;
763 [label="mse = 0.0\nsamples = 1\nvalue = 543000.0"] ;
762 -> 763 ;
764 [label="mse = 0.0\nsamples = 1\nvalue = 470000.0"] ;
762 -> 764 ;
765 [label="Longtitude <= 144.979\nmse = 6234925619.835\nsamples = 11\nvalue = 475727.273"] ;
755 -> 765 ;
766 [label="Longtitude <= 144.974\nmse = 3854204081.633\nsamples = 7\nvalue = 434714.286"] ;
765 -> 766 ;
767 [label="Longtitude <= 144.969\nmse = 5102888888.889\nsamples = 3\nvalue = 479333.333"] ;
766 -> 767 ;
768 [label="mse = 0.0\nsamples = 1\nvalue = 387000.0"] ;
767 -> 768 ;
769 [label="Lattitude <= -37.832\nmse = 1260250000.0\nsamples = 2\nvalue = 525500.0"] ;
767 -> 769 ;
770 [label="mse = 0.0\nsamples = 1\nvalue = 490000.0"] ;
769 -> 770 ;
771 [label="mse = 0.0\nsamples = 1\nvalue = 561000.0"] ;
769 -> 771 ;
772 [label="Lattitude <= -37.863\nmse = 304687500.0\nsamples = 4\nvalue = 401250.0"] ;
766 -> 772 ;
773 [label="mse = 0.0\nsamples = 1\nvalue = 385000.0"] ;
772 -> 773 ;
774 [label="Longtitude <= 144.976\nmse = 288888888.889\nsamples = 3\nvalue = 406666.667"] ;
772 -> 774 ;
775 [label="mse = 0.0\nsamples = 1\nvalue = 400000.0"] ;
774 -> 775 ;
776 [label="mse = 400000000.0\nsamples = 2\nvalue = 410000.0"] ;
774 -> 776 ;
777 [label="Longtitude <= 144.981\nmse = 2306250000.0\nsamples = 4\nvalue = 547500.0"] ;
765 -> 777 ;
778 [label="Lattitude <= -37.86\nmse = 738888888.889\nsamples = 3\nvalue = 571666.667"] ;
777 -> 778 ;
779 [label="Longtitude <= 144.979\nmse = 506250000.0\nsamples = 2\nvalue = 557500.0"] ;
778 -> 779 ;
780 [label="mse = 0.0\nsamples = 1\nvalue = 535000.0"] ;
779 -> 780 ;
781 [label="mse = 0.0\nsamples = 1\nvalue = 580000.0"] ;
779 -> 781 ;
782 [label="mse = 0.0\nsamples = 1\nvalue = 600000.0"] ;
778 -> 782 ;
783 [label="mse = 0.0\nsamples = 1\nvalue = 475000.0"] ;
777 -> 783 ;
784 [label="Lattitude <= -37.855\nmse = 24456471868.383\nsamples = 121\nvalue = 615066.116"] ;
720 -> 784 ;
785 [label="Lattitude <= -37.856\nmse = 16593133572.049\nsamples = 72\nvalue = 593281.25"] ;
784 -> 785 ;
786 [label="Longtitude <= 144.982\nmse = 16241675908.423\nsamples = 69\nvalue = 599655.797"] ;
785 -> 786 ;
787 [label="mse = 0.0\nsamples = 1\nvalue = 825000.0"] ;
786 -> 787 ;
788 [label="Lattitude <= -37.879\nmse = 15722777397.816\nsamples = 68\nvalue = 596341.912"] ;
786 -> 788 ;
789 [label="Lattitude <= -37.895\nmse = 10537874023.438\nsamples = 24\nvalue = 629343.75"] ;
788 -> 789 ;
790 [label="Lattitude <= -37.898\nmse = 7192666666.667\nsamples = 3\nvalue = 508000.0"] ;
789 -> 790 ;
791 [label="Lattitude <= -37.904\nmse = 870250000.0\nsamples = 2\nvalue = 565500.0"] ;
790 -> 791 ;
792 [label="mse = 0.0\nsamples = 1\nvalue = 536000.0"] ;
791 -> 792 ;
793 [label="mse = 0.0\nsamples = 1\nvalue = 595000.0"] ;
791 -> 793 ;
794 [label="mse = 0.0\nsamples = 1\nvalue = 393000.0"] ;
790 -> 794 ;
795 [label="Lattitude <= -37.88\nmse = 8611792517.007\nsamples = 21\nvalue = 646678.571"] ;
789 -> 795 ;
796 [label="Longtitude <= 144.984\nmse = 7706819598.338\nsamples = 19\nvalue = 633697.368"] ;
795 -> 796 ;
797 [label="Lattitude <= -37.883\nmse = 3600000000.0\nsamples = 2\nvalue = 705000.0"] ;
796 -> 797 ;
798 [label="mse = 0.0\nsamples = 1\nvalue = 645000.0"] ;
797 -> 798 ;
799 [label="mse = 0.0\nsamples = 1\nvalue = 765000.0"] ;
797 -> 799 ;
800 [label="Longtitude <= 144.99\nmse = 7521481833.91\nsamples = 17\nvalue = 625308.824"] ;
796 -> 800 ;
801 [label="Longtitude <= 144.988\nmse = 2218240000.0\nsamples = 5\nvalue = 578400.0"] ;
800 -> 801 ;
802 [label="Lattitude <= -37.883\nmse = 1310750000.0\nsamples = 4\nvalue = 595500.0"] ;
801 -> 802 ;
803 [label="mse = 0.0\nsamples = 1\nvalue = 550000.0"] ;
802 -> 803 ;
804 [label="Lattitude <= -37.882\nmse = 827555555.556\nsamples = 3\nvalue = 610666.667"] ;
802 -> 804 ;
805 [label="mse = 961000000.0\nsamples = 2\nvalue = 601000.0"] ;
804 -> 805 ;
806 [label="mse = 0.0\nsamples = 1\nvalue = 630000.0"] ;
804 -> 806 ;
807 [label="mse = 0.0\nsamples = 1\nvalue = 510000.0"] ;
801 -> 807 ;
808 [label="Lattitude <= -37.882\nmse = 8432296440.972\nsamples = 12\nvalue = 644854.167"] ;
800 -> 808 ;
809 [label="Lattitude <= -37.884\nmse = 7118921875.0\nsamples = 8\nvalue = 672875.0"] ;
808 -> 809 ;
810 [label="Lattitude <= -37.886\nmse = 4724840000.0\nsamples = 5\nvalue = 628900.0"] ;
809 -> 810 ;
811 [label="Lattitude <= -37.889\nmse = 3266796875.0\nsamples = 4\nvalue = 651875.0"] ;
810 -> 811 ;
812 [label="Longtitude <= 144.99\nmse = 904166666.667\nsamples = 3\nvalue = 622500.0"] ;
811 -> 812 ;
813 [label="mse = 0.0\nsamples = 1\nvalue = 582500.0"] ;
812 -> 813 ;
814 [label="Longtitude <= 145.002\nmse = 156250000.0\nsamples = 2\nvalue = 642500.0"] ;
812 -> 814 ;
815 [label="mse = 0.0\nsamples = 1\nvalue = 655000.0"] ;
814 -> 815 ;
816 [label="mse = 0.0\nsamples = 1\nvalue = 630000.0"] ;
814 -> 816 ;
817 [label="mse = 0.0\nsamples = 1\nvalue = 740000.0"] ;
811 -> 817 ;
818 [label="mse = 0.0\nsamples = 1\nvalue = 537000.0"] ;
810 -> 818 ;
819 [label="Lattitude <= -37.883\nmse = 2514388888.889\nsamples = 3\nvalue = 746166.667"] ;
809 -> 819 ;
820 [label="mse = 0.0\nsamples = 1\nvalue = 810000.0"] ;
819 -> 820 ;
821 [label="Lattitude <= -37.883\nmse = 715562500.0\nsamples = 2\nvalue = 714250.0"] ;
819 -> 821 ;
822 [label="mse = 0.0\nsamples = 1\nvalue = 741000.0"] ;
821 -> 822 ;
823 [label="mse = 0.0\nsamples = 1\nvalue = 687500.0"] ;
821 -> 823 ;
824 [label="Lattitude <= -37.882\nmse = 6348042968.75\nsamples = 4\nvalue = 588812.5"] ;
808 -> 824 ;
825 [label="mse = 0.0\nsamples = 1\nvalue = 500000.0"] ;
824 -> 825 ;
826 [label="Lattitude <= -37.881\nmse = 4958430555.556\nsamples = 3\nvalue = 618416.667"] ;
824 -> 826 ;
827 [label="Longtitude <= 144.999\nmse = 1032015625.0\nsamples = 2\nvalue = 664625.0"] ;
826 -> 827 ;
828 [label="mse = 0.0\nsamples = 1\nvalue = 696750.0"] ;
827 -> 828 ;
829 [label="mse = 0.0\nsamples = 1\nvalue = 632500.0"] ;
827 -> 829 ;
830 [label="mse = 0.0\nsamples = 1\nvalue = 526000.0"] ;
826 -> 830 ;
831 [label="Longtitude <= 144.993\nmse = 400000000.0\nsamples = 2\nvalue = 770000.0"] ;
795 -> 831 ;
832 [label="mse = 0.0\nsamples = 1\nvalue = 750000.0"] ;
831 -> 832 ;
833 [label="mse = 0.0\nsamples = 1\nvalue = 790000.0"] ;
831 -> 833 ;
834 [label="Lattitude <= -37.859\nmse = 17632804235.537\nsamples = 44\nvalue = 578340.909"] ;
788 -> 834 ;
835 [label="Longtitude <= 144.992\nmse = 15020574722.222\nsamples = 30\nvalue = 551183.333"] ;
834 -> 835 ;
836 [label="Longtitude <= 144.985\nmse = 18008163580.247\nsamples = 18\nvalue = 593944.444"] ;
835 -> 836 ;
837 [label="Longtitude <= 144.983\nmse = 2158160000.0\nsamples = 5\nvalue = 485200.0"] ;
836 -> 837 ;
838 [label="Lattitude <= -37.874\nmse = 272222222.222\nsamples = 3\nvalue = 521666.667"] ;
837 -> 838 ;
839 [label="mse = 0.0\nsamples = 1\nvalue = 500000.0"] ;
838 -> 839 ;
840 [label="Lattitude <= -37.869\nmse = 56250000.0\nsamples = 2\nvalue = 532500.0"] ;
838 -> 840 ;
841 [label="mse = 0.0\nsamples = 1\nvalue = 525000.0"] ;
840 -> 841 ;
842 [label="mse = 0.0\nsamples = 1\nvalue = 540000.0"] ;
840 -> 842 ;
843 [label="Lattitude <= -37.867\nmse = 250000.0\nsamples = 2\nvalue = 430500.0"] ;
837 -> 843 ;
844 [label="mse = 0.0\nsamples = 1\nvalue = 430000.0"] ;
843 -> 844 ;
845 [label="mse = 0.0\nsamples = 1\nvalue = 431000.0"] ;
843 -> 845 ;
846 [label="Lattitude <= -37.862\nmse = 17806792899.408\nsamples = 13\nvalue = 635769.231"] ;
836 -> 846 ;
847 [label="Lattitude <= -37.875\nmse = 16343504132.231\nsamples = 11\nvalue = 662636.364"] ;
846 -> 847 ;
848 [label="Longtitude <= 144.988\nmse = 2741440000.0\nsamples = 5\nvalue = 559400.0"] ;
847 -> 848 ;
849 [label="Lattitude <= -37.875\nmse = 1088888888.889\nsamples = 3\nvalue = 596666.667"] ;
848 -> 849 ;
850 [label="Longtitude <= 144.986\nmse = 625000000.0\nsamples = 2\nvalue = 615000.0"] ;
849 -> 850 ;
851 [label="mse = 0.0\nsamples = 1\nvalue = 590000.0"] ;
850 -> 851 ;
852 [label="mse = 0.0\nsamples = 1\nvalue = 640000.0"] ;
850 -> 852 ;
853 [label="mse = 0.0\nsamples = 1\nvalue = 560000.0"] ;
849 -> 853 ;
854 [label="Lattitude <= -37.876\nmse = 12250000.0\nsamples = 2\nvalue = 503500.0"] ;
848 -> 854 ;
855 [label="mse = 0.0\nsamples = 1\nvalue = 500000.0"] ;
854 -> 855 ;
856 [label="mse = 0.0\nsamples = 1\nvalue = 507000.0"] ;
854 -> 856 ;
857 [label="Longtitude <= 144.986\nmse = 11395888888.889\nsamples = 6\nvalue = 748666.667"] ;
847 -> 857 ;
858 [label="mse = 0.0\nsamples = 1\nvalue = 875000.0"] ;
857 -> 858 ;
859 [label="Lattitude <= -37.87\nmse = 9844640000.0\nsamples = 5\nvalue = 723400.0"] ;
857 -> 859 ;
860 [label="Longtitude <= 144.989\nmse = 2896888888.889\nsamples = 3\nvalue = 671333.333"] ;
859 -> 860 ;
861 [label="mse = 0.0\nsamples = 1\nvalue = 600000.0"] ;
860 -> 861 ;
862 [label="Longtitude <= 144.991\nmse = 529000000.0\nsamples = 2\nvalue = 707000.0"] ;
860 -> 862 ;
863 [label="mse = 0.0\nsamples = 1\nvalue = 730000.0"] ;
862 -> 863 ;
864 [label="mse = 0.0\nsamples = 1\nvalue = 684000.0"] ;
862 -> 864 ;
865 [label="Lattitude <= -37.865\nmse = 10100250000.0\nsamples = 2\nvalue = 801500.0"] ;
859 -> 865 ;
866 [label="mse = 0.0\nsamples = 1\nvalue = 902000.0"] ;
865 -> 866 ;
867 [label="mse = 0.0\nsamples = 1\nvalue = 701000.0"] ;
865 -> 867 ;
868 [label="Lattitude <= -37.861\nmse = 49000000.0\nsamples = 2\nvalue = 488000.0"] ;
846 -> 868 ;
869 [label="mse = 0.0\nsamples = 1\nvalue = 495000.0"] ;
868 -> 869 ;
870 [label="mse = 0.0\nsamples = 1\nvalue = 481000.0"] ;
868 -> 870 ;
871 [label="Lattitude <= -37.861\nmse = 3682269097.222\nsamples = 12\nvalue = 487041.667"] ;
835 -> 871 ;
872 [label="Lattitude <= -37.874\nmse = 1870722500.0\nsamples = 10\nvalue = 467450.0"] ;
871 -> 872 ;
873 [label="mse = 0.0\nsamples = 2\nvalue = 520000.0"] ;
872 -> 873 ;
874 [label="Longtitude <= 145.016\nmse = 1475433593.75\nsamples = 8\nvalue = 454312.5"] ;
872 -> 874 ;
875 [label="Longtitude <= 144.995\nmse = 981744897.959\nsamples = 7\nvalue = 444928.571"] ;
874 -> 875 ;
876 [label="Lattitude <= -37.87\nmse = 460500000.0\nsamples = 3\nvalue = 475500.0"] ;
875 -> 876 ;
877 [label="mse = 0.0\nsamples = 1\nvalue = 502500.0"] ;
876 -> 877 ;
878 [label="Lattitude <= -37.866\nmse = 144000000.0\nsamples = 2\nvalue = 462000.0"] ;
876 -> 878 ;
879 [label="mse = 0.0\nsamples = 1\nvalue = 474000.0"] ;
878 -> 879 ;
880 [label="mse = 0.0\nsamples = 1\nvalue = 450000.0"] ;
878 -> 880 ;
881 [label="Lattitude <= -37.873\nmse = 146000000.0\nsamples = 4\nvalue = 422000.0"] ;
875 -> 881 ;
882 [label="mse = 0.0\nsamples = 1\nvalue = 410000.0"] ;
881 -> 882 ;
883 [label="Lattitude <= -37.87\nmse = 130666666.667\nsamples = 3\nvalue = 426000.0"] ;
881 -> 883 ;
884 [label="mse = 0.0\nsamples = 1\nvalue = 442000.0"] ;
883 -> 884 ;
885 [label="Lattitude <= -37.864\nmse = 4000000.0\nsamples = 2\nvalue = 418000.0"] ;
883 -> 885 ;
886 [label="mse = 0.0\nsamples = 1\nvalue = 416000.0"] ;
885 -> 886 ;
887 [label="mse = 0.0\nsamples = 1\nvalue = 420000.0"] ;
885 -> 887 ;
888 [label="mse = 0.0\nsamples = 1\nvalue = 520000.0"] ;
874 -> 888 ;
889 [label="Lattitude <= -37.86\nmse = 1225000000.0\nsamples = 2\nvalue = 585000.0"] ;
871 -> 889 ;
890 [label="mse = 0.0\nsamples = 1\nvalue = 550000.0"] ;
889 -> 890 ;
891 [label="mse = 0.0\nsamples = 1\nvalue = 620000.0"] ;
889 -> 891 ;
892 [label="Lattitude <= -37.859\nmse = 18263373724.49\nsamples = 14\nvalue = 636535.714"] ;
834 -> 892 ;
893 [label="mse = 19600000000.0\nsamples = 2\nvalue = 880000.0"] ;
892 -> 893 ;
894 [label="Longtitude <= 144.995\nmse = 6514935763.889\nsamples = 12\nvalue = 595958.333"] ;
892 -> 894 ;
895 [label="Lattitude <= -37.857\nmse = 1662000000.0\nsamples = 3\nvalue = 539000.0"] ;
894 -> 895 ;
896 [label="mse = 0.0\nsamples = 1\nvalue = 575000.0"] ;
895 -> 896 ;
897 [label="Longtitude <= 144.988\nmse = 1521000000.0\nsamples = 2\nvalue = 521000.0"] ;
895 -> 897 ;
898 [label="mse = 0.0\nsamples = 1\nvalue = 482000.0"] ;
897 -> 898 ;
899 [label="mse = 0.0\nsamples = 1\nvalue = 560000.0"] ;
897 -> 899 ;
900 [label="Lattitude <= -37.858\nmse = 6690691358.025\nsamples = 9\nvalue = 614944.444"] ;
894 -> 900 ;
901 [label="Lattitude <= -37.859\nmse = 1431687500.0\nsamples = 4\nvalue = 563250.0"] ;
900 -> 901 ;
902 [label="mse = 0.0\nsamples = 1\nvalue = 598000.0"] ;
901 -> 902 ;
903 [label="Longtitude <= 145.004\nmse = 1372222222.222\nsamples = 3\nvalue = 551666.667"] ;
901 -> 903 ;
904 [label="Longtitude <= 145.002\nmse = 56250000.0\nsamples = 2\nvalue = 577500.0"] ;
903 -> 904 ;
905 [label="mse = 0.0\nsamples = 1\nvalue = 585000.0"] ;
904 -> 905 ;
906 [label="mse = 0.0\nsamples = 1\nvalue = 570000.0"] ;
904 -> 906 ;
907 [label="mse = 0.0\nsamples = 1\nvalue = 500000.0"] ;
903 -> 907 ;
908 [label="Lattitude <= -37.858\nmse = 7049760000.0\nsamples = 5\nvalue = 656300.0"] ;
900 -> 908 ;
909 [label="mse = 0.0\nsamples = 1\nvalue = 800000.0"] ;
908 -> 909 ;
910 [label="Longtitude <= 145.018\nmse = 2359171875.0\nsamples = 4\nvalue = 620375.0"] ;
908 -> 910 ;
911 [label="Lattitude <= -37.857\nmse = 37500000.0\nsamples = 3\nvalue = 592500.0"] ;
910 -> 911 ;
912 [label="mse = 0.0\nsamples = 1\nvalue = 592500.0"] ;
911 -> 912 ;
913 [label="mse = 56250000.0\nsamples = 2\nvalue = 592500.0"] ;
911 -> 913 ;
914 [label="mse = 0.0\nsamples = 1\nvalue = 704000.0"] ;
910 -> 914 ;
915 [label="Lattitude <= -37.855\nmse = 2246222222.222\nsamples = 3\nvalue = 446666.667"] ;
785 -> 915 ;
916 [label="mse = 0.0\nsamples = 1\nvalue = 380000.0"] ;
915 -> 916 ;
917 [label="Longtitude <= 145.008\nmse = 36000000.0\nsamples = 2\nvalue = 480000.0"] ;
915 -> 917 ;
918 [label="mse = 0.0\nsamples = 1\nvalue = 474000.0"] ;
917 -> 918 ;
919 [label="mse = 0.0\nsamples = 1\nvalue = 486000.0"] ;
917 -> 919 ;
920 [label="Lattitude <= -37.852\nmse = 34288755622.657\nsamples = 49\nvalue = 647076.531"] ;
784 -> 920 ;
921 [label="Longtitude <= 145.006\nmse = 126523555555.555\nsamples = 3\nvalue = 1078666.667"] ;
920 -> 921 ;
922 [label="Lattitude <= -37.852\nmse = 38809000000.0\nsamples = 2\nvalue = 1303000.0"] ;
921 -> 922 ;
923 [label="mse = 0.0\nsamples = 1\nvalue = 1106000.0"] ;
922 -> 923 ;
924 [label="mse = 0.0\nsamples = 1\nvalue = 1500000.0"] ;
922 -> 924 ;
925 [label="mse = 0.0\nsamples = 1\nvalue = 630000.0"] ;
921 -> 925 ;
926 [label="Lattitude <= -37.813\nmse = 15333132236.531\nsamples = 46\nvalue = 618929.348"] ;
920 -> 926 ;
927 [label="Longtitude <= 145.011\nmse = 14493729135.802\nsamples = 45\nvalue = 623994.444"] ;
926 -> 927 ;
928 [label="Lattitude <= -37.829\nmse = 13319441308.864\nsamples = 38\nvalue = 610802.632"] ;
927 -> 928 ;
929 [label="Longtitude <= 145.007\nmse = 10641447086.801\nsamples = 29\nvalue = 633965.517"] ;
928 -> 929 ;
930 [label="Longtitude <= 144.985\nmse = 9769641581.633\nsamples = 28\nvalue = 640535.714"] ;
929 -> 930 ;
931 [label="Lattitude <= -37.835\nmse = 4290250000.0\nsamples = 2\nvalue = 760500.0"] ;
930 -> 931 ;
932 [label="mse = 0.0\nsamples = 1\nvalue = 695000.0"] ;
931 -> 932 ;
933 [label="mse = 0.0\nsamples = 1\nvalue = 826000.0"] ;
931 -> 933 ;
934 [label="Lattitude <= -37.851\nmse = 8998943786.982\nsamples = 26\nvalue = 631307.692"] ;
930 -> 934 ;
935 [label="Lattitude <= -37.851\nmse = 1722250000.0\nsamples = 2\nvalue = 739500.0"] ;
934 -> 935 ;
936 [label="mse = 0.0\nsamples = 1\nvalue = 698000.0"] ;
935 -> 936 ;
937 [label="mse = 0.0\nsamples = 1\nvalue = 781000.0"] ;
935 -> 937 ;
938 [label="Lattitude <= -37.844\nmse = 8548581597.222\nsamples = 24\nvalue = 622291.667"] ;
934 -> 938 ;
939 [label="Lattitude <= -37.846\nmse = 1468888888.889\nsamples = 6\nvalue = 554333.333"] ;
938 -> 939 ;
940 [label="Lattitude <= -37.851\nmse = 1206750000.0\nsamples = 4\nvalue = 571500.0"] ;
939 -> 940 ;
941 [label="Lattitude <= -37.851\nmse = 225000000.0\nsamples = 2\nvalue = 545000.0"] ;
940 -> 941 ;
942 [label="mse = 0.0\nsamples = 1\nvalue = 530000.0"] ;
941 -> 942 ;
943 [label="mse = 0.0\nsamples = 1\nvalue = 560000.0"] ;
941 -> 943 ;
944 [label="Lattitude <= -37.849\nmse = 784000000.0\nsamples = 2\nvalue = 598000.0"] ;
940 -> 944 ;
945 [label="mse = 0.0\nsamples = 1\nvalue = 626000.0"] ;
944 -> 945 ;
946 [label="mse = 0.0\nsamples = 1\nvalue = 570000.0"] ;
944 -> 946 ;
947 [label="Longtitude <= 145.002\nmse = 225000000.0\nsamples = 2\nvalue = 520000.0"] ;
939 -> 947 ;
948 [label="mse = 0.0\nsamples = 1\nvalue = 505000.0"] ;
947 -> 948 ;
949 [label="mse = 0.0\nsamples = 1\nvalue = 535000.0"] ;
947 -> 949 ;
950 [label="Lattitude <= -37.838\nmse = 8855885802.469\nsamples = 18\nvalue = 644944.444"] ;
938 -> 950 ;
951 [label="Lattitude <= -37.84\nmse = 5089140000.0\nsamples = 5\nvalue = 708100.0"] ;
950 -> 951 ;
952 [label="Longtitude <= 144.998\nmse = 4000000.0\nsamples = 2\nvalue = 625500.0"] ;
951 -> 952 ;
953 [label="mse = 0.0\nsamples = 1\nvalue = 623500.0"] ;
952 -> 953 ;
954 [label="mse = 0.0\nsamples = 1\nvalue = 627500.0"] ;
952 -> 954 ;
955 [label="Longtitude <= 144.994\nmse = 898388888.889\nsamples = 3\nvalue = 763166.667"] ;
951 -> 955 ;
956 [label="Lattitude <= -37.839\nmse = 702250000.0\nsamples = 2\nvalue = 748500.0"] ;
955 -> 956 ;
957 [label="mse = 0.0\nsamples = 1\nvalue = 775000.0"] ;
956 -> 957 ;
958 [label="mse = 0.0\nsamples = 1\nvalue = 722000.0"] ;
956 -> 958 ;
959 [label="mse = 0.0\nsamples = 1\nvalue = 792500.0"] ;
955 -> 959 ;
960 [label="Longtitude <= 144.989\nmse = 8180514792.899\nsamples = 13\nvalue = 620653.846"] ;
950 -> 960 ;
961 [label="Lattitude <= -37.832\nmse = 3870560000.0\nsamples = 5\nvalue = 566200.0"] ;
960 -> 961 ;
962 [label="Longtitude <= 144.988\nmse = 2147000000.0\nsamples = 4\nvalue = 543000.0"] ;
961 -> 962 ;
963 [label="Lattitude <= -37.833\nmse = 1098666666.667\nsamples = 3\nvalue = 564000.0"] ;
962 -> 963 ;
964 [label="Lattitude <= -37.835\nmse = 196000000.0\nsamples = 2\nvalue = 586000.0"] ;
963 -> 964 ;
965 [label="mse = 0.0\nsamples = 1\nvalue = 572000.0"] ;
964 -> 965 ;
966 [label="mse = 0.0\nsamples = 1\nvalue = 600000.0"] ;
964 -> 966 ;
967 [label="mse = 0.0\nsamples = 1\nvalue = 520000.0"] ;
963 -> 967 ;
968 [label="mse = 0.0\nsamples = 1\nvalue = 480000.0"] ;
962 -> 968 ;
969 [label="mse = 0.0\nsamples = 1\nvalue = 659000.0"] ;
961 -> 969 ;
970 [label="Lattitude <= -37.835\nmse = 7862683593.75\nsamples = 8\nvalue = 654687.5"] ;
960 -> 970 ;
971 [label="Longtitude <= 144.998\nmse = 6243921875.0\nsamples = 4\nvalue = 595375.0"] ;
970 -> 971 ;
972 [label="Lattitude <= -37.837\nmse = 4282388888.889\nsamples = 3\nvalue = 627166.667"] ;
971 -> 972 ;
973 [label="mse = 0.0\nsamples = 1\nvalue = 535000.0"] ;
972 -> 973 ;
974 [label="Longtitude <= 144.994\nmse = 52562500.0\nsamples = 2\nvalue = 673250.0"] ;
972 -> 974 ;
975 [label="mse = 0.0\nsamples = 1\nvalue = 680500.0"] ;
974 -> 975 ;
976 [label="mse = 0.0\nsamples = 1\nvalue = 666000.0"] ;
974 -> 976 ;
977 [label="mse = 0.0\nsamples = 1\nvalue = 500000.0"] ;
971 -> 977 ;
978 [label="Lattitude <= -37.834\nmse = 2445500000.0\nsamples = 4\nvalue = 714000.0"] ;
970 -> 978 ;
979 [label="mse = 0.0\nsamples = 1\nvalue = 780000.0"] ;
978 -> 979 ;
980 [label="Lattitude <= -37.833\nmse = 1324666666.667\nsamples = 3\nvalue = 692000.0"] ;
978 -> 980 ;
981 [label="mse = 600250000.0\nsamples = 2\nvalue = 670500.0"] ;
980 -> 981 ;
982 [label="mse = 0.0\nsamples = 1\nvalue = 735000.0"] ;
980 -> 982 ;
983 [label="mse = 0.0\nsamples = 1\nvalue = 450000.0"] ;
929 -> 983 ;
984 [label="Longtitude <= 144.991\nmse = 14649222222.222\nsamples = 9\nvalue = 536166.667"] ;
928 -> 984 ;
985 [label="mse = 0.0\nsamples = 1\nvalue = 270000.0"] ;
984 -> 985 ;
986 [label="Lattitude <= -37.826\nmse = 6517839843.75\nsamples = 8\nvalue = 569437.5"] ;
984 -> 986 ;
987 [label="mse = 0.0\nsamples = 1\nvalue = 479000.0"] ;
986 -> 987 ;
988 [label="Lattitude <= -37.821\nmse = 6113622448.98\nsamples = 7\nvalue = 582357.143"] ;
986 -> 988 ;
989 [label="Longtitude <= 144.993\nmse = 1821166666.667\nsamples = 3\nvalue = 641500.0"] ;
988 -> 989 ;
990 [label="mse = 0.0\nsamples = 1\nvalue = 582000.0"] ;
989 -> 990 ;
991 [label="Lattitude <= -37.824\nmse = 76562500.0\nsamples = 2\nvalue = 671250.0"] ;
989 -> 991 ;
992 [label="mse = 0.0\nsamples = 1\nvalue = 662500.0"] ;
991 -> 992 ;
993 [label="mse = 0.0\nsamples = 1\nvalue = 680000.0"] ;
991 -> 993 ;
994 [label="Lattitude <= -37.819\nmse = 4742000000.0\nsamples = 4\nvalue = 538000.0"] ;
988 -> 994 ;
995 [label="mse = 0.0\nsamples = 1\nvalue = 512000.0"] ;
994 -> 995 ;
996 [label="Lattitude <= -37.816\nmse = 6022222222.222\nsamples = 3\nvalue = 546666.667"] ;
994 -> 996 ;
997 [label="mse = 9025000000.0\nsamples = 2\nvalue = 545000.0"] ;
996 -> 997 ;
998 [label="mse = 0.0\nsamples = 1\nvalue = 550000.0"] ;
996 -> 998 ;
999 [label="Lattitude <= -37.832\nmse = 14795354591.837\nsamples = 7\nvalue = 695607.143"] ;
927 -> 999 ;
1000 [label="mse = 49000000.0\nsamples = 2\nvalue = 518000.0"] ;
999 -> 1000 ;
1001 [label="Longtitude <= 145.019\nmse = 3029090000.0\nsamples = 5\nvalue = 766650.0"] ;
999 -> 1001 ;
1002 [label="Lattitude <= -37.819\nmse = 557386718.75\nsamples = 4\nvalue = 792062.5"] ;
1001 -> 1002 ;
1003 [label="Longtitude <= 145.018\nmse = 676000000.0\nsamples = 2\nvalue = 779000.0"] ;
1002 -> 1003 ;
1004 [label="mse = 0.0\nsamples = 1\nvalue = 753000.0"] ;
1003 -> 1004 ;
1005 [label="mse = 0.0\nsamples = 1\nvalue = 805000.0"] ;
1003 -> 1005 ;
1006 [label="Lattitude <= -37.817\nmse = 97515625.0\nsamples = 2\nvalue = 805125.0"] ;
1002 -> 1006 ;
1007 [label="mse = 0.0\nsamples = 1\nvalue = 815000.0"] ;
1006 -> 1007 ;
1008 [label="mse = 0.0\nsamples = 1\nvalue = 795250.0"] ;
1006 -> 1008 ;
1009 [label="mse = 0.0\nsamples = 1\nvalue = 665000.0"] ;
1001 -> 1009 ;
1010 [label="mse = 0.0\nsamples = 1\nvalue = 391000.0"] ;
926 -> 1010 ;
1011 [label="Lattitude <= -37.805\nmse = 51936659347.866\nsamples = 51\nvalue = 680272.235"] ;
681 -> 1011 ;
1012 [label="Longtitude <= 144.985\nmse = 236682250000.0\nsamples = 2\nvalue = 1158500.0"] ;
1011 -> 1012 ;
1013 [label="mse = 0.0\nsamples = 1\nvalue = 672000.0"] ;
1012 -> 1013 ;
1014 [label="mse = 0.0\nsamples = 1\nvalue = 1645000.0"] ;
1012 -> 1014 ;
1015 [label="Longtitude <= 144.972\nmse = 34680244950.807\nsamples = 49\nvalue = 660752.735"] ;
1011 -> 1015 ;
1016 [label="Longtitude <= 144.943\nmse = 6206898784.51\nsamples = 19\nvalue = 593730.737"] ;
1015 -> 1016 ;
1017 [label="mse = 0.0\nsamples = 1\nvalue = 726000.0"] ;
1016 -> 1017 ;
1018 [label="Longtitude <= 144.943\nmse = 5525775872.691\nsamples = 18\nvalue = 586382.444"] ;
1016 -> 1018 ;
1019 [label="mse = 0.0\nsamples = 1\nvalue = 465000.0"] ;
1018 -> 1019 ;
1020 [label="Lattitude <= -37.803\nmse = 4933151751.889\nsamples = 17\nvalue = 593522.588"] ;
1018 -> 1020 ;
1021 [label="Longtitude <= 144.957\nmse = 2741555555.556\nsamples = 3\nvalue = 536333.333"] ;
1020 -> 1021 ;
1022 [label="mse = 0.0\nsamples = 1\nvalue = 541000.0"] ;
1021 -> 1022 ;
1023 [label="mse = 4096000000.0\nsamples = 2\nvalue = 534000.0"] ;
1021 -> 1023 ;
1024 [label="Lattitude <= -37.8\nmse = 4551753208.816\nsamples = 14\nvalue = 605777.429"] ;
1020 -> 1024 ;
1025 [label="Lattitude <= -37.8\nmse = 6576605468.75\nsamples = 4\nvalue = 658812.5"] ;
1024 -> 1025 ;
1026 [label="Lattitude <= -37.801\nmse = 34347222.222\nsamples = 3\nvalue = 612083.333"] ;
1025 -> 1026 ;
1027 [label="Lattitude <= -37.802\nmse = 4515625.0\nsamples = 2\nvalue = 608125.0"] ;
1026 -> 1027 ;
1028 [label="mse = 0.0\nsamples = 1\nvalue = 606000.0"] ;
1027 -> 1028 ;
1029 [label="mse = 0.0\nsamples = 1\nvalue = 610250.0"] ;
1027 -> 1029 ;
1030 [label="mse = 0.0\nsamples = 1\nvalue = 620000.0"] ;
1026 -> 1030 ;
1031 [label="mse = 0.0\nsamples = 1\nvalue = 799000.0"] ;
1025 -> 1031 ;
1032 [label="Longtitude <= 144.954\nmse = 2166689776.04\nsamples = 10\nvalue = 584563.4"] ;
1024 -> 1032 ;
1033 [label="Longtitude <= 144.946\nmse = 483312116.75\nsamples = 4\nvalue = 551408.5"] ;
1032 -> 1033 ;
1034 [label="mse = 0.0\nsamples = 1\nvalue = 587134.0"] ;
1033 -> 1034 ;
1035 [label="Lattitude <= -37.797\nmse = 77166666.667\nsamples = 3\nvalue = 539500.0"] ;
1033 -> 1035 ;
1036 [label="Longtitude <= 144.947\nmse = 33062500.0\nsamples = 2\nvalue = 534250.0"] ;
1035 -> 1036 ;
1037 [label="mse = 0.0\nsamples = 1\nvalue = 540000.0"] ;
1036 -> 1037 ;
1038 [label="mse = 0.0\nsamples = 1\nvalue = 528500.0"] ;
1036 -> 1038 ;
1039 [label="mse = 0.0\nsamples = 1\nvalue = 550000.0"] ;
1035 -> 1039 ;
1040 [label="Lattitude <= -37.794\nmse = 2067555555.556\nsamples = 6\nvalue = 606666.667"] ;
1032 -> 1040 ;
1041 [label="Lattitude <= -37.798\nmse = 3364000000.0\nsamples = 2\nvalue = 647000.0"] ;
1040 -> 1041 ;
1042 [label="mse = 0.0\nsamples = 1\nvalue = 589000.0"] ;
1041 -> 1042 ;
1043 [label="mse = 0.0\nsamples = 1\nvalue = 705000.0"] ;
1041 -> 1043 ;
1044 [label="Lattitude <= -37.784\nmse = 199250000.0\nsamples = 4\nvalue = 586500.0"] ;
1040 -> 1044 ;
1045 [label="mse = 0.0\nsamples = 1\nvalue = 570000.0"] ;
1044 -> 1045 ;
1046 [label="Longtitude <= 144.96\nmse = 144666666.667\nsamples = 3\nvalue = 592000.0"] ;
1044 -> 1046 ;
1047 [label="mse = 0.0\nsamples = 1\nvalue = 601000.0"] ;
1046 -> 1047 ;
1048 [label="Longtitude <= 144.965\nmse = 156250000.0\nsamples = 2\nvalue = 587500.0"] ;
1046 -> 1048 ;
1049 [label="mse = 0.0\nsamples = 1\nvalue = 575000.0"] ;
1048 -> 1049 ;
1050 [label="mse = 0.0\nsamples = 1\nvalue = 600000.0"] ;
1048 -> 1050 ;
1051 [label="Longtitude <= 144.989\nmse = 48066693333.333\nsamples = 30\nvalue = 703200.0"] ;
1015 -> 1051 ;
1052 [label="Lattitude <= -37.799\nmse = 56082692520.776\nsamples = 19\nvalue = 783789.474"] ;
1051 -> 1052 ;
1053 [label="Lattitude <= -37.801\nmse = 92280138888.889\nsamples = 6\nvalue = 957166.667"] ;
1052 -> 1053 ;
1054 [label="Lattitude <= -37.804\nmse = 50054240000.0\nsamples = 5\nvalue = 856600.0"] ;
1053 -> 1054 ;
1055 [label="mse = 0.0\nsamples = 1\nvalue = 1260000.0"] ;
1054 -> 1055 ;
1056 [label="Longtitude <= 144.984\nmse = 11714187500.0\nsamples = 4\nvalue = 755750.0"] ;
1054 -> 1056 ;
1057 [label="mse = 0.0\nsamples = 1\nvalue = 630000.0"] ;
1056 -> 1057 ;
1058 [label="Longtitude <= 144.985\nmse = 8590888888.889\nsamples = 3\nvalue = 797666.667"] ;
1056 -> 1058 ;
1059 [label="mse = 0.0\nsamples = 1\nvalue = 800000.0"] ;
1058 -> 1059 ;
1060 [label="mse = 12882250000.0\nsamples = 2\nvalue = 796500.0"] ;
1058 -> 1060 ;
1061 [label="mse = 0.0\nsamples = 1\nvalue = 1460000.0"] ;
1053 -> 1061 ;
1062 [label="Longtitude <= 144.988\nmse = 19099254437.87\nsamples = 13\nvalue = 703769.231"] ;
1052 -> 1062 ;
1063 [label="Lattitude <= -37.777\nmse = 7912076388.889\nsamples = 12\nvalue = 672416.667"] ;
1062 -> 1063 ;
1064 [label="Longtitude <= 144.986\nmse = 6009867768.595\nsamples = 11\nvalue = 657636.364"] ;
1063 -> 1064 ;
1065 [label="Lattitude <= -37.793\nmse = 4956490000.0\nsamples = 10\nvalue = 669900.0"] ;
1064 -> 1065 ;
1066 [label="Lattitude <= -37.795\nmse = 2116666666.667\nsamples = 3\nvalue = 745000.0"] ;
1065 -> 1066 ;
1067 [label="Longtitude <= 144.981\nmse = 6250000.0\nsamples = 2\nvalue = 712500.0"] ;
1066 -> 1067 ;
1068 [label="mse = 0.0\nsamples = 1\nvalue = 710000.0"] ;
1067 -> 1068 ;
1069 [label="mse = 0.0\nsamples = 1\nvalue = 715000.0"] ;
1067 -> 1069 ;
1070 [label="mse = 0.0\nsamples = 1\nvalue = 810000.0"] ;
1066 -> 1070 ;
1071 [label="Lattitude <= -37.779\nmse = 2720489795.918\nsamples = 7\nvalue = 637714.286"] ;
1065 -> 1071 ;
1072 [label="Longtitude <= 144.978\nmse = 4072222222.222\nsamples = 3\nvalue = 603333.333"] ;
1071 -> 1072 ;
1073 [label="mse = 0.0\nsamples = 1\nvalue = 520000.0"] ;
1072 -> 1073 ;
1074 [label="Lattitude <= -37.785\nmse = 900000000.0\nsamples = 2\nvalue = 645000.0"] ;
1072 -> 1074 ;
1075 [label="mse = 0.0\nsamples = 1\nvalue = 675000.0"] ;
1074 -> 1075 ;
1076 [label="mse = 0.0\nsamples = 1\nvalue = 615000.0"] ;
1074 -> 1076 ;
1077 [label="Longtitude <= 144.975\nmse = 155250000.0\nsamples = 4\nvalue = 663500.0"] ;
1071 -> 1077 ;
1078 [label="mse = 0.0\nsamples = 1\nvalue = 683000.0"] ;
1077 -> 1078 ;
1079 [label="Longtitude <= 144.98\nmse = 38000000.0\nsamples = 3\nvalue = 657000.0"] ;
1077 -> 1079 ;
1080 [label="mse = 20250000.0\nsamples = 2\nvalue = 660500.0"] ;
1079 -> 1080 ;
1081 [label="mse = 0.0\nsamples = 1\nvalue = 650000.0"] ;
1079 -> 1081 ;
1082 [label="mse = 0.0\nsamples = 1\nvalue = 535000.0"] ;
1064 -> 1082 ;
1083 [label="mse = 0.0\nsamples = 1\nvalue = 835000.0"] ;
1063 -> 1083 ;
1084 [label="mse = 0.0\nsamples = 1\nvalue = 1080000.0"] ;
1062 -> 1084 ;
1085 [label="Longtitude <= 145.014\nmse = 3626181818.182\nsamples = 11\nvalue = 564000.0"] ;
1051 -> 1085 ;
1086 [label="Lattitude <= -37.799\nmse = 2431090000.0\nsamples = 10\nvalue = 575900.0"] ;
1085 -> 1086 ;
1087 [label="Longtitude <= 144.999\nmse = 6250000.0\nsamples = 2\nvalue = 502500.0"] ;
1086 -> 1087 ;
1088 [label="mse = 0.0\nsamples = 1\nvalue = 500000.0"] ;
1087 -> 1088 ;
1089 [label="mse = 0.0\nsamples = 1\nvalue = 505000.0"] ;
1087 -> 1089 ;
1090 [label="Longtitude <= 145.011\nmse = 1353687500.0\nsamples = 8\nvalue = 594250.0"] ;
1086 -> 1090 ;
1091 [label="Lattitude <= -37.792\nmse = 455959183.674\nsamples = 7\nvalue = 582571.429"] ;
1090 -> 1091 ;
1092 [label="mse = 0.0\nsamples = 1\nvalue = 560000.0"] ;
1091 -> 1092 ;
1093 [label="Longtitude <= 145.01\nmse = 432888888.889\nsamples = 6\nvalue = 586333.333"] ;
1091 -> 1093 ;
1094 [label="Lattitude <= -37.778\nmse = 188500000.0\nsamples = 4\nvalue = 592000.0"] ;
1093 -> 1094 ;
1095 [label="Lattitude <= -37.785\nmse = 36222222.222\nsamples = 3\nvalue = 599333.333"] ;
1094 -> 1095 ;
1096 [label="mse = 0.0\nsamples = 1\nvalue = 591000.0"] ;
1095 -> 1096 ;
1097 [label="Lattitude <= -37.781\nmse = 2250000.0\nsamples = 2\nvalue = 603500.0"] ;
1095 -> 1097 ;
1098 [label="mse = 0.0\nsamples = 1\nvalue = 605000.0"] ;
1097 -> 1098 ;
1099 [label="mse = 0.0\nsamples = 1\nvalue = 602000.0"] ;
1097 -> 1099 ;
1100 [label="mse = 0.0\nsamples = 1\nvalue = 570000.0"] ;
1094 -> 1100 ;
1101 [label="mse = 729000000.0\nsamples = 2\nvalue = 575000.0"] ;
1093 -> 1101 ;
1102 [label="mse = 0.0\nsamples = 1\nvalue = 676000.0"] ;
1090 -> 1102 ;
1103 [label="mse = 0.0\nsamples = 1\nvalue = 445000.0"] ;
1085 -> 1103 ;
1104 [label="Landsize <= 71.0\nmse = 51755135802.469\nsamples = 9\nvalue = 806444.444"] ;
680 -> 1104 ;
1105 [label="Lattitude <= -37.799\nmse = 31272222222.222\nsamples = 3\nvalue = 1028333.333"] ;
1104 -> 1105 ;
1106 [label="Lattitude <= -37.819\nmse = 4900000000.0\nsamples = 2\nvalue = 910000.0"] ;
1105 -> 1106 ;
1107 [label="mse = 0.0\nsamples = 1\nvalue = 980000.0"] ;
1106 -> 1107 ;
1108 [label="mse = 0.0\nsamples = 1\nvalue = 840000.0"] ;
1106 -> 1108 ;
1109 [label="mse = 0.0\nsamples = 1\nvalue = 1265000.0"] ;
1105 -> 1109 ;
1110 [label="Landsize <= 77.0\nmse = 25070583333.333\nsamples = 6\nvalue = 695500.0"] ;
1104 -> 1110 ;
1111 [label="Lattitude <= -37.787\nmse = 10659040000.0\nsamples = 5\nvalue = 638600.0"] ;
1110 -> 1111 ;
1112 [label="Longtitude <= 145.004\nmse = 5183187500.0\nsamples = 4\nvalue = 598250.0"] ;
1111 -> 1112 ;
1113 [label="Landsize <= 73.5\nmse = 400000000.0\nsamples = 2\nvalue = 530000.0"] ;
1112 -> 1113 ;
1114 [label="mse = 0.0\nsamples = 1\nvalue = 550000.0"] ;
1113 -> 1114 ;
1115 [label="mse = 0.0\nsamples = 1\nvalue = 510000.0"] ;
1113 -> 1115 ;
1116 [label="Landsize <= 73.0\nmse = 650250000.0\nsamples = 2\nvalue = 666500.0"] ;
1112 -> 1116 ;
1117 [label="mse = 0.0\nsamples = 1\nvalue = 641000.0"] ;
1116 -> 1117 ;
1118 [label="mse = 0.0\nsamples = 1\nvalue = 692000.0"] ;
1116 -> 1118 ;
1119 [label="mse = 0.0\nsamples = 1\nvalue = 800000.0"] ;
1111 -> 1119 ;
1120 [label="mse = 0.0\nsamples = 1\nvalue = 980000.0"] ;
1110 -> 1120 ;
1121 [label="Lattitude <= -37.939\nmse = 15622707600.862\nsamples = 115\nvalue = 556300.087"] ;
679 -> 1121 ;
1122 [label="Longtitude <= 145.048\nmse = 1064666666.667\nsamples = 3\nvalue = 807000.0"] ;
1121 -> 1122 ;
1123 [label="mse = 0.0\nsamples = 1\nvalue = 771000.0"] ;
1122 -> 1123 ;
1124 [label="Lattitude <= -37.975\nmse = 625000000.0\nsamples = 2\nvalue = 825000.0"] ;
1122 -> 1124 ;
1125 [label="mse = 0.0\nsamples = 1\nvalue = 800000.0"] ;
1124 -> 1125 ;
1126 [label="mse = 0.0\nsamples = 1\nvalue = 850000.0"] ;
1124 -> 1126 ;
1127 [label="Lattitude <= -37.887\nmse = 14284067433.921\nsamples = 112\nvalue = 549584.911"] ;
1121 -> 1127 ;
1128 [label="Longtitude <= 145.047\nmse = 9307622548.483\nsamples = 41\nvalue = 488536.829"] ;
1127 -> 1128 ;
1129 [label="Longtitude <= 145.031\nmse = 3161686390.533\nsamples = 13\nvalue = 440576.923"] ;
1128 -> 1129 ;
1130 [label="Longtitude <= 145.028\nmse = 2256250000.0\nsamples = 2\nvalue = 537500.0"] ;
1129 -> 1130 ;
1131 [label="mse = 0.0\nsamples = 1\nvalue = 490000.0"] ;
1130 -> 1131 ;
1132 [label="mse = 0.0\nsamples = 1\nvalue = 585000.0"] ;
1130 -> 1132 ;
1133 [label="Lattitude <= -37.918\nmse = 1307747933.884\nsamples = 11\nvalue = 422954.545"] ;
1129 -> 1133 ;
1134 [label="Lattitude <= -37.933\nmse = 500000000.0\nsamples = 4\nvalue = 390000.0"] ;
1133 -> 1134 ;
1135 [label="Lattitude <= -37.935\nmse = 100000000.0\nsamples = 2\nvalue = 410000.0"] ;
1134 -> 1135 ;
1136 [label="mse = 0.0\nsamples = 1\nvalue = 400000.0"] ;
1135 -> 1136 ;
1137 [label="mse = 0.0\nsamples = 1\nvalue = 420000.0"] ;
1135 -> 1137 ;
1138 [label="Longtitude <= 145.041\nmse = 100000000.0\nsamples = 2\nvalue = 370000.0"] ;
1134 -> 1138 ;
1139 [label="mse = 0.0\nsamples = 1\nvalue = 380000.0"] ;
1138 -> 1139 ;
1140 [label="mse = 0.0\nsamples = 1\nvalue = 360000.0"] ;
1138 -> 1140 ;
1141 [label="Longtitude <= 145.043\nmse = 794132653.061\nsamples = 7\nvalue = 441785.714"] ;
1133 -> 1141 ;
1142 [label="Lattitude <= -37.894\nmse = 216666666.667\nsamples = 3\nvalue = 470000.0"] ;
1141 -> 1142 ;
1143 [label="Lattitude <= -37.901\nmse = 25000000.0\nsamples = 2\nvalue = 480000.0"] ;
1142 -> 1143 ;
1144 [label="mse = 0.0\nsamples = 1\nvalue = 485000.0"] ;
1143 -> 1144 ;
1145 [label="mse = 0.0\nsamples = 1\nvalue = 475000.0"] ;
1143 -> 1145 ;
1146 [label="mse = 0.0\nsamples = 1\nvalue = 450000.0"] ;
1142 -> 1146 ;
1147 [label="Lattitude <= -37.903\nmse = 182421875.0\nsamples = 4\nvalue = 420625.0"] ;
1141 -> 1147 ;
1148 [label="Lattitude <= -37.903\nmse = 116666666.667\nsamples = 3\nvalue = 415000.0"] ;
1147 -> 1148 ;
1149 [label="mse = 0.0\nsamples = 1\nvalue = 405000.0"] ;
1148 -> 1149 ;
1150 [label="mse = 100000000.0\nsamples = 2\nvalue = 420000.0"] ;
